{"learner":{"attributes":{"best_iteration":"169","best_score":"0.2330611248633333","scikit_learn":"{\"_estimator_type\": \"classifier\"}"},"feature_names":[],"feature_types":[],"gradient_booster":{"model":{"cats":{"enc":[],"feature_segments":[],"sorted_idx":[]},"gbtree_model_param":{"num_parallel_tree":"1","num_trees":"190"},"iteration_indptr":[0,1,2,3,4,5,6,7,8,9,10,11,12,13,14,15,16,17,18,19,20,21,22,23,24,25,26,27,28,29,30,31,32,33,34,35,36,37,38,39,40,41,42,43,44,45,46,47,48,49,50,51,52,53,54,55,56,57,58,59,60,61,62,63,64,65,66,67,68,69,70,71,72,73,74,75,76,77,78,79,80,81,82,83,84,85,86,87,88,89,90,91,92,93,94,95,96,97,98,99,100,101,102,103,104,105,106,107,108,109,110,111,112,113,114,115,116,117,118,119,120,121,122,123,124,125,126,127,128,129,130,131,132,133,134,135,136,137,138,139,140,141,142,143,144,145,146,147,148,149,150,151,152,153,154,155,156,157,158,159,160,161,162,163,164,165,166,167,168,169,170,171,172,173,174,175,176,177,178,179,180,181,182,183,184,185,186,187,188,189,190],"tree_info":[0,0,0,0,0,0,0,0,0,0,0,0,0,0,0,0,0,0,0,0,0,0,0,0,0,0,0,0,0,0,0,0,0,0,0,0,0,0,0,0,0,0,0,0,0,0,0,0,0,0,0,0,0,0,0,0,0,0,0,0,0,0,0,0,0,0,0,0,0,0,0,0,0,0,0,0,0,0,0,0,0,0,0,0,0,0,0,0,0,0,0,0,0,0,0,0,0,0,0,0,0,0,0,0,0,0,0,0,0,0,0,0,0,0,0,0,0,0,0,0,0,0,0,0,0,0,0,0,0,0,0,0,0,0,0,0,0,0,0,0,0,0,0,0,0,0,0,0,0,0,0,0,0,0,0,0,0,0,0,0,0,0,0,0,0,0,0,0,0,0,0,0,0,0,0,0,0,0,0,0,0,0,0,0,0,0,0,0,0,0],"trees":[{"base_weights":[-4.551961E-3,-1.0635068E0,8.5080844E-1,-1.2923312E0,1.1333334E-1,9.6990716E-1,-1.2788321E0,-8.9810526E-1,-1.7614771E0,1.6076373E0,-9.216529E-1,-1.08625E0,1.0632991E0,-1.5404011E0,1.7575757E-1,-4.355821E-1,-1.5518236E0,-1.402521E0,-1.8469911E0,-5.619048E-1,1.8309711E0,-1.7148387E0,-8.561873E-2,-1.1801981E0,4.5714286E-1,1.214676E0,-2.7318436E-1,-1.6504505E0,5.8E-1,1.0380952E0,-1.1285714E0,-1.7635854E0,-7.534039E-2,1.1851852E-1,-1.6693285E0,-1.8306977E0,-1.0324528E0,-1.8687773E-1,-1.2722892E0,-1.4142857E0,8.666667E-1,1.871618E0,-9.5E-2,-1.9192119E0,-1.2756757E0,-8.852071E-1,9.223881E-1,-8.973545E-1,-1.5898305E0,1.0352942E0,-9.5E-2,6.96334E-1,1.4482472E0,-1.1466042E0,1.0020478E0,-9.96E-1,-1.8970464E0,-9.5E-2,1.225E-1,-1.16E-1,1.5444444E0,3.6000002E-2,-1.6181819E-1,-4.1739132E-2,-1.8331361E-1,-7.2129965E-2,3.880829E-2,1.3826087E-1,-1.374359E-1,-1.7825028E-1,-1.1310345E-1,-1.8464455E-1,-4.4999998E-2,5.8E-2,-1.1469879E-1,-1.7703705E-1,-2.909091E-2,-0E0,-1.65E-1,-0E0,1.11428574E-1,-4.4999998E-2,1.9024129E-1,-1.9376884E-1,-4.4999998E-2,-1.5702127E-1,2.666667E-2,-1.4872728E-1,2.1587303E-2,1.7404257E-1,-8.9999996E-2,-4.923077E-2,-1.468421E-1,-1.7054546E-1,-0E0,1.3538462E-1,-0E0,6.3703703E-3,1.1360967E-1,1.564599E-1,7.126667E-2,-1.481119E-1,-4.5241382E-2,1.3609563E-1,-1.0347827E-1,-3.9333336E-2,-1.7181818E-1,-1.9124465E-1,-4.4999998E-2,1.7375E-1,-0E0],"categories":[],"categories_nodes":[],"categories_segments":[],"categories_sizes":[],"default_left":[0,0,0,0,0,0,0,0,0,0,0,0,0,0,0,0,0,0,0,0,0,0,0,0,0,0,0,0,0,0,0,0,0,0,0,0,0,0,0,0,0,0,0,0,0,0,0,0,0,0,0,0,0,0,0,0,0,0,0,0,0,0,0,0,0,0,0,0,0,0,0,0,0,0,0,0,0,0,0,0,0,0,0,0,0,0,0,0,0,0,0,0,0,0,0,0,0,0,0,0,0,0,0,0,0,0,0,0,0,0,0],"id":0,"left_children":[1,3,5,7,9,11,13,15,17,19,21,23,25,27,29,31,33,35,37,39,41,43,45,47,49,51,53,55,57,59,61,63,65,67,69,71,73,-1,75,77,79,81,-1,83,85,87,89,91,93,95,-1,97,99,101,103,105,107,-1,-1,-1,109,-1,-1,-1,-1,-1,-1,-1,-1,-1,-1,-1,-1,-1,-1,-1,-1,-1,-1,-1,-1,-1,-1,-1,-1,-1,-1,-1,-1,-1,-1,-1,-1,-1,-1,-1,-1,-1,-1,-1,-1,-1,-1,-1,-1,-1,-1,-1,-1,-1,-1],"loss_changes":[3.1648438E3,4.20693E2,4.9142737E2,2.3992725E2,3.959292E2,3.5275696E2,3.950107E1,2.1455676E2,1.5371582E1,5.1910492E1,9.997162E1,1.2211723E1,3.5487756E2,2.1423996E1,1.9721256E1,2.0001414E2,5.8204468E1,1.6679657E1,3.289917E0,1.406619E1,1.2637085E1,4.18808E0,6.1060577E1,7.101181E0,5.263151E0,1.8934106E2,2.0053595E2,1.12565155E1,6.1254997E0,1.35165415E1,5.8101044E0,7.3661804E0,9.924926E1,4.0115444E1,1.4476318E1,1.0813904E-1,1.2957161E1,0E0,9.4216E0,2.3335724E0,9.65714E-1,7.7395935E0,0E0,2.6693726E-1,1.3155262E1,2.8456676E1,5.1591606E1,1.0010342E1,5.4227676E0,1.4016294E0,0E0,1.3640738E2,9.143262E1,2.3925705E1,5.4989273E1,9.993904E0,2.2351074E-1,0E0,0E0,0E0,2.6834717E0,0E0,0E0,0E0,0E0,0E0,0E0,0E0,0E0,0E0,0E0,0E0,0E0,0E0,0E0,0E0,0E0,0E0,0E0,0E0,0E0,0E0,0E0,0E0,0E0,0E0,0E0,0E0,0E0,0E0,0E0,0E0,0E0,0E0,0E0,0E0,0E0,0E0,0E0,0E0,0E0,0E0,0E0,0E0,0E0,0E0,0E0,0E0,0E0,0E0,0E0],"parents":[2147483647,0,0,1,1,2,2,3,3,4,4,5,5,6,6,7,7,8,8,9,9,10,10,11,11,12,12,13,13,14,14,15,15,16,16,17,17,18,18,19,19,20,20,21,21,22,22,23,23,24,24,25,25,26,26,27,27,28,28,29,29,30,30,31,31,32,32,33,33,34,34,35,35,36,36,38,38,39,39,40,40,41,41,43,43,44,44,45,45,46,46,47,47,48,48,49,49,51,51,52,52,53,53,54,54,55,55,56,56,60,60],"right_children":[2,4,6,8,10,12,14,16,18,20,22,24,26,28,30,32,34,36,38,40,42,44,46,48,50,52,54,56,58,60,62,64,66,68,70,72,74,-1,76,78,80,82,-1,84,86,88,90,92,94,96,-1,98,100,102,104,106,108,-1,-1,-1,110,-1,-1,-1,-1,-1,-1,-1,-1,-1,-1,-1,-1,-1,-1,-1,-1,-1,-1,-1,-1,-1,-1,-1,-1,-1,-1,-1,-1,-1,-1,-1,-1,-1,-1,-1,-1,-1,-1,-1,-1,-1,-1,-1,-1,-1,-1,-1,-1,-1,-1],"split_conditions":[-2.3031627E-1,7.9211646E-1,1.0477281E0,4.1714332E-1,1.1432016E0,-1.5084026E0,6.9117504E-1,1.9881773E-1,6.8831176E-1,-6.4631894E-2,3.262005E-1,1.975998E0,9.2350924E-1,6.772401E-1,2.3813926E-1,-1.5084026E0,-1.543646E0,-4.246575E-1,1.9086473E0,-1.2806681E-1,2.0054986E0,-1.2738223E0,9.192626E-1,1.1985767E-1,1.2180226E0,-3.6336228E-1,4.539276E-1,-3.7049854E-1,-1.2393326E-2,-1.5084026E0,-8.337297E-1,-2.0299103E0,-7.264181E-1,4.4131216E-1,4.539276E-1,1.8472066E0,-1.1501403E0,-1.8687773E-1,6.0455835E-1,4.598403E-1,5.879665E-3,-1.1589254E0,-9.5E-2,1.9086473E0,9.192626E-1,-1.2593858E0,1.9866377E0,1.5362763E-1,1.3330727E0,-6.7363703E-1,-9.5E-2,4.603003E-1,-2.632762E-2,5.4841614E-3,2.363127E-1,1.570299E0,2.1733854E0,-9.5E-2,1.225E-1,-1.16E-1,8.9363605E-1,3.6000002E-2,-1.6181819E-1,-4.1739132E-2,-1.8331361E-1,-7.2129965E-2,3.880829E-2,1.3826087E-1,-1.374359E-1,-1.7825028E-1,-1.1310345E-1,-1.8464455E-1,-4.4999998E-2,5.8E-2,-1.1469879E-1,-1.7703705E-1,-2.909091E-2,-0E0,-1.65E-1,-0E0,1.11428574E-1,-4.4999998E-2,1.9024129E-1,-1.9376884E-1,-4.4999998E-2,-1.5702127E-1,2.666667E-2,-1.4872728E-1,2.1587303E-2,1.7404257E-1,-8.9999996E-2,-4.923077E-2,-1.468421E-1,-1.7054546E-1,-0E0,1.3538462E-1,-0E0,6.3703703E-3,1.1360967E-1,1.564599E-1,7.126667E-2,-1.481119E-1,-4.5241382E-2,1.3609563E-1,-1.0347827E-1,-3.9333336E-2,-1.7181818E-1,-1.9124465E-1,-4.4999998E-2,1.7375E-1,-0E0],"split_indices":[28,23,13,13,24,9,28,9,13,14,3,8,9,23,9,9,25,18,14,18,13,28,23,23,28,18,14,8,12,9,25,1,28,24,14,5,8,0,23,24,1,28,0,14,23,28,24,0,5,13,0,28,24,18,7,13,12,0,0,0,8,0,0,0,0,0,0,0,0,0,0,0,0,0,0,0,0,0,0,0,0,0,0,0,0,0,0,0,0,0,0,0,0,0,0,0,0,0,0,0,0,0,0,0,0,0,0,0,0,0,0],"split_type":[0,0,0,0,0,0,0,0,0,0,0,0,0,0,0,0,0,0,0,0,0,0,0,0,0,0,0,0,0,0,0,0,0,0,0,0,0,0,0,0,0,0,0,0,0,0,0,0,0,0,0,0,0,0,0,0,0,0,0,0,0,0,0,0,0,0,0,0,0,0,0,0,0,0,0,0,0,0,0,0,0,0,0,0,0,0,0,0,0,0,0,0,0,0,0,0,0,0,0,0,0,0,0,0,0,0,0,0,0,0,0],"sum_hessian":[3.492E3,1.56025E3,1.93175E3,1.30625E3,2.54E2,1.83E3,1.0175E2,7.115E2,5.9475E2,1.0375E2,1.5025E2,7.9E1,1.751E3,8.625E1,1.55E1,4.1775E2,2.9375E2,1.18E2,4.7675E2,9.5E0,9.425E1,7.65E1,7.375E1,7.475E1,4.25E0,1.573E3,1.78E2,8.225E1,4E0,9.5E0,6E0,8.825E1,3.295E2,1.925E1,2.745E2,5.275E1,6.525E1,4.57E2,1.975E1,6E0,3.5E0,9.325E1,1E0,4.975E1,2.675E1,4.125E1,3.25E1,4.625E1,2.85E1,3.25E0,1E0,4.9E2,1.083E3,1.0575E2,7.225E1,2.4E1,5.825E1,1E0,3E0,1.5E0,8E0,1.5E0,4.5E0,4.75E0,8.35E1,1.375E2,1.92E2,1.05E1,8.75E0,2.2475E2,4.975E1,5.175E1,1E0,4E0,6.125E1,1.25E1,7.25E0,1E0,5E0,1E0,2.5E0,1E0,9.225E1,4.875E1,1E0,2.25E1,4.25E0,2.65E1,1.475E1,2.25E1,1E1,2.825E1,1.8E1,2.65E1,2E0,2.25E0,1E0,2.015E2,2.885E2,9.34E2,1.49E2,7.05E1,3.525E1,6.175E1,1.05E1,1.4E1,1E1,5.725E1,1E0,7E0,1E0],"tree_param":{"num_deleted":"0","num_feature":"37","num_nodes":"111","size_leaf_vector":"1"}},{"base_weights":[1.1412436E-3,-9.5069265E-1,7.659214E-1,-1.4167014E0,-4.427739E-1,-9.537307E-1,8.8248336E-1,-1.6164724E0,-1.0018024E0,-7.962557E-1,7.407138E-1,-1.2770969E0,2.0670603E-1,1.0488511E0,-4.0101504E-1,-1.464271E0,-1.7607483E0,-1.1625112E0,9.363424E-1,-3.7826398E-1,-1.5103387E0,1.550463E0,-4.7616085E-1,-1.6022894E0,-7.8705686E-1,-8.3924466E-1,1.0953861E0,4.2237523E-1,1.2667674E0,-7.946194E-1,1.5972992E0,-1.1752791E0,-1.6449349E0,-1.8042621E-1,-1.1984303E0,-6.599843E-1,-1.5699221E0,1.4779323E0,-7.394031E-1,-1.1834593E0,6.618909E-3,-1.1503863E0,-1.6579715E0,-1.1220781E-1,1.6284069E0,-1.3053149E0,6.4648104E-1,2.187922E-2,-1.6488018E0,-1.1130018E0,2.4862517E-1,5.073256E-1,-1.3377863E0,1.2403172E0,-2.6542181E-2,1.0475416E0,-2.7474478E-1,6.008589E-1,1.4360305E0,-1.1666908E0,5.053714E-1,1.8069556E-1,-8.685183E-2,-6.1649818E-2,-1.4372665E-1,-1.6970035E-1,-5.4012E-2,-1.544629E-1,3.3384543E-2,-1.6676746E-1,-1.2495152E-2,-1.6637127E-1,-7.710423E-2,-2.1219265E-2,1.639985E-1,6.80575E-2,-1.4246821E-1,-6.051634E-2,-1.5018372E-1,3.0342272E-2,-7.882445E-2,-1.344376E-1,1.07958555E-1,-1.1350715E-1,-1.7119479E-1,-1.046036E-1,1.6733284E-1,-1.6593431E-1,-7.395082E-2,1.386895E-1,-9.18668E-2,-5.6220572E-2,-1.7252436E-1,1.6185258E-2,-1.2210895E-1,1.0203405E-1,-1.8375734E-2,1.0989509E-1,-1.781938E-2,-1.4629138E-1,-2.0998681E-2,4.9078602E-2,1.64358E-1,5.8899928E-2,1.2482893E-1,-7.848387E-2,1.8470941E-2,1.0132851E-1,-2.764613E-2,1.47204E-1,-2.6928056E-2,1.8750817E-2,-1.4214624E-1,1.2657718E-1,-1.01878546E-1,5.046047E-2,-1.0130848E-1],"categories":[],"categories_nodes":[],"categories_segments":[],"categories_sizes":[],"default_left":[0,0,0,0,0,0,0,0,0,0,0,0,0,0,0,0,0,0,0,0,0,0,0,0,0,0,0,0,0,0,0,0,0,0,0,0,0,0,0,0,0,0,0,0,0,0,0,0,0,0,0,0,0,0,0,0,0,0,0,0,0,0,0,0,0,0,0,0,0,0,0,0,0,0,0,0,0,0,0,0,0,0,0,0,0,0,0,0,0,0,0,0,0,0,0,0,0,0,0,0,0,0,0,0,0,0,0,0,0,0,0,0,0,0,0,0,0],"id":1,"left_children":[1,3,5,7,9,11,13,15,17,19,21,23,25,27,29,31,33,35,37,39,41,43,45,47,49,51,53,55,57,59,61,63,65,-1,67,69,71,73,75,77,79,81,83,-1,85,87,89,-1,91,93,95,97,99,101,-1,103,105,107,109,111,113,-1,115,-1,-1,-1,-1,-1,-1,-1,-1,-1,-1,-1,-1,-1,-1,-1,-1,-1,-1,-1,-1,-1,-1,-1,-1,-1,-1,-1,-1,-1,-1,-1,-1,-1,-1,-1,-1,-1,-1,-1,-1,-1,-1,-1,-1,-1,-1,-1,-1,-1,-1,-1,-1,-1,-1],"loss_changes":[2.5387808E3,3.669486E2,3.8847534E2,6.523413E1,3.1225848E2,4.659703E1,3.8734326E2,9.062256E0,8.3952545E1,1.70629E2,1.701233E2,1.3885727E1,2.6636602E1,2.1829492E2,1.6521655E2,1.1953796E1,4.251587E0,4.9124573E1,2.010846E1,1.12812256E2,9.055908E0,2.3424408E1,6.546951E1,5.3273773E0,1.40690365E1,9.630558E0,3.4696312E0,1.8149545E2,1.3301208E2,8.526978E1,1.2548508E1,1.4735107E1,8.309753E0,0E0,1.2758884E1,6.0007256E1,8.594391E0,4.914562E0,6.609289E0,2.0548477E1,5.844591E1,2.9598396E1,1.9375916E0,0E0,1.3941132E1,6.6005707E0,3.6180733E1,0E0,3.4278564E0,4.594246E0,3.7624004E0,2.0076838E0,9.3255234E-1,3.2679005E0,0E0,1.927684E1,4.6425137E1,8.825075E1,5.870764E1,4.7439102E1,4.7168686E1,0E0,3.1546824E0,0E0,0E0,0E0,0E0,0E0,0E0,0E0,0E0,0E0,0E0,0E0,0E0,0E0,0E0,0E0,0E0,0E0,0E0,0E0,0E0,0E0,0E0,0E0,0E0,0E0,0E0,0E0,0E0,0E0,0E0,0E0,0E0,0E0,0E0,0E0,0E0,0E0,0E0,0E0,0E0,0E0,0E0,0E0,0E0,0E0,0E0,0E0,0E0,0E0,0E0,0E0,0E0,0E0,0E0],"parents":[2147483647,0,0,1,1,2,2,3,3,4,4,5,5,6,6,7,7,8,8,9,9,10,10,11,11,12,12,13,13,14,14,15,15,16,16,17,17,18,18,19,19,20,20,21,21,22,22,23,23,24,24,25,25,26,26,27,27,28,28,29,29,30,30,31,31,32,32,34,34,35,35,36,36,37,37,38,38,39,39,40,40,41,41,42,42,44,44,45,45,46,46,48,48,49,49,50,50,51,51,52,52,53,53,55,55,56,56,57,57,58,58,59,59,60,60,62,62],"right_children":[2,4,6,8,10,12,14,16,18,20,22,24,26,28,30,32,34,36,38,40,42,44,46,48,50,52,54,56,58,60,62,64,66,-1,68,70,72,74,76,78,80,82,84,-1,86,88,90,-1,92,94,96,98,100,102,-1,104,106,108,110,112,114,-1,116,-1,-1,-1,-1,-1,-1,-1,-1,-1,-1,-1,-1,-1,-1,-1,-1,-1,-1,-1,-1,-1,-1,-1,-1,-1,-1,-1,-1,-1,-1,-1,-1,-1,-1,-1,-1,-1,-1,-1,-1,-1,-1,-1,-1,-1,-1,-1,-1,-1,-1,-1,-1,-1,-1],"split_conditions":[-2.3031627E-1,-2.2856043E-1,-1.3892739E0,-6.4946824E-1,7.9211646E-1,-6.422997E-2,9.062677E-1,2.7206072E-1,7.5691515E-1,5.314451E-1,1.2404624E0,4.7052085E-1,3.662423E-1,-7.877681E-1,6.636992E-1,2.0234038E-1,8.5393333E-1,-5.9465375E-2,7.18953E-1,-9.017965E-1,5.8601016E-1,-5.939498E-1,9.192626E-1,-2.4343212E0,-3.5942563E-1,-7.3728555E-1,3.0530837E-1,-3.1261212E-1,-5.177794E-1,9.5414424E-1,3.6739933E-1,-5.137656E-1,1.0765116E0,-1.8042621E-1,-1.079326E0,-1.3892739E0,9.7343224E-1,-8.412709E-1,-6.807321E-1,-5.137656E-1,4.0956777E-1,6.772401E-1,6.8831176E-1,-1.1220781E-1,-5.861671E-1,-2.0562425E-1,1.7768987E0,2.187922E-2,-1.770231E0,-1.9015471E0,-1.4888613E0,-3.3607608E-1,5.7344186E-1,-6.471099E-1,-2.6542181E-2,2.8864074E-1,-2.179996E-1,-3.437453E-1,1.1095254E0,-1.1997796E0,-1.3470963E-1,1.8069556E-1,-2.6306716E-1,-6.1649818E-2,-1.4372665E-1,-1.6970035E-1,-5.4012E-2,-1.544629E-1,3.3384543E-2,-1.6676746E-1,-1.2495152E-2,-1.6637127E-1,-7.710423E-2,-2.1219265E-2,1.639985E-1,6.80575E-2,-1.4246821E-1,-6.051634E-2,-1.5018372E-1,3.0342272E-2,-7.882445E-2,-1.344376E-1,1.07958555E-1,-1.1350715E-1,-1.7119479E-1,-1.046036E-1,1.6733284E-1,-1.6593431E-1,-7.395082E-2,1.386895E-1,-9.18668E-2,-5.6220572E-2,-1.7252436E-1,1.6185258E-2,-1.2210895E-1,1.0203405E-1,-1.8375734E-2,1.0989509E-1,-1.781938E-2,-1.4629138E-1,-2.0998681E-2,4.9078602E-2,1.64358E-1,5.8899928E-2,1.2482893E-1,-7.848387E-2,1.8470941E-2,1.0132851E-1,-2.764613E-2,1.47204E-1,-2.6928056E-2,1.8750817E-2,-1.4214624E-1,1.2657718E-1,-1.01878546E-1,5.046047E-2,-1.0130848E-1],"split_indices":[28,18,11,28,23,12,9,9,23,13,22,28,28,15,23,13,23,9,22,28,22,9,23,5,24,9,23,9,18,14,8,23,3,0,28,11,14,5,7,23,9,23,13,0,14,11,22,0,13,6,14,7,15,1,0,28,18,22,13,22,13,0,15,0,0,0,0,0,0,0,0,0,0,0,0,0,0,0,0,0,0,0,0,0,0,0,0,0,0,0,0,0,0,0,0,0,0,0,0,0,0,0,0,0,0,0,0,0,0,0,0,0,0,0,0,0,0],"split_type":[0,0,0,0,0,0,0,0,0,0,0,0,0,0,0,0,0,0,0,0,0,0,0,0,0,0,0,0,0,0,0,0,0,0,0,0,0,0,0,0,0,0,0,0,0,0,0,0,0,0,0,0,0,0,0,0,0,0,0,0,0,0,0,0,0,0,0,0,0,0,0,0,0,0,0,0,0,0,0,0,0,0,0,0,0,0,0,0,0,0,0,0,0,0,0,0,0,0,0,0,0,0,0,0,0,0,0,0,0,0,0,0,0,0,0,0,0],"sum_hessian":[3.4856313E3,1.5527402E3,1.9328911E3,8.0874304E2,7.439972E2,1.2218858E2,1.8107025E3,5.437798E2,2.6496326E2,5.7320514E2,1.707921E2,9.554872E1,2.6639868E1,1.6031606E3,2.0754185E2,2.7038452E2,2.7339526E2,2.4509227E2,1.9870985E1,3.6261597E2,2.1058916E2,1.02435875E2,6.8356224E1,5.5947773E1,3.960095E1,1.221099E1,1.4428878E1,4.14612E2,1.1885486E3,1.7393466E2,3.3607197E1,1.0710967E2,1.6327486E2,2.5154364E2,2.1851616E1,1.11019295E2,1.3407297E2,1.5151756E1,4.7192287E0,1.1668653E2,2.4592943E2,6.400479E1,1.4658437E2,2.4868782E0,9.9949E1,3.927505E1,2.9081173E1,1.2475853E0,5.4700188E1,3.0137968E1,9.462978E0,3.240401E0,8.970589E0,1.3186497E1,1.2423812E0,2.183974E2,1.962146E2,2.4192339E2,9.4662524E2,1.3536981E2,3.8564842E1,2.9874626E1,3.7325692E0,3.538132E1,7.1728355E1,1.5532794E2,7.946927E0,1.7871069E1,3.980546E0,3.770367E1,7.331562E1,1.1890543E2,1.51675415E1,1.2446113E0,1.39071455E1,1.4908831E0,3.2283456E0,4.2572834E1,7.411369E1,1.796076E2,6.6321815E1,5.9289085E1,4.7157025E0,1.5949933E1,1.3063443E2,1.2461543E0,9.870284E1,2.2861225E1,1.6413828E1,1.9862663E1,9.218509E0,4.2303247E0,5.046986E1,2.2443314E0,2.7893637E1,2.992837E0,6.4701414E0,1.4938998E0,1.7465012E0,7.7274346E0,1.2431542E0,5.475108E0,7.711389E0,6.7849525E1,1.5054787E2,9.275067E1,1.0346393E2,1.6453491E2,7.7388466E1,9.27241E2,1.9384245E1,2.1414719E1,1.1395509E2,2.5885653E1,1.2679189E1,2.4898748E0,1.2426943E0],"tree_param":{"num_deleted":"0","num_feature":"37","num_nodes":"117","size_leaf_vector":"1"}},{"base_weights":[1.917226E-3,-8.1112915E-1,7.794596E-1,-1.2592503E0,-3.4091195E-1,-1.005508E0,8.7048894E-1,-1.4830112E0,-8.80027E-1,-1.4315012E0,-4.8355836E-2,-1.1674258E0,9.638206E-1,1.0293553E0,-1.9719121E-1,2.767129E-2,-1.4910114E0,-1.325785E0,-4.3593836E-1,-4.4712228E-1,-1.52851E0,1.766926E-1,-1.2686166E0,-1.4752215E0,-6.780776E-1,1.407435E-1,-3.57448E-2,6.258446E-1,1.2272418E0,-8.217407E-1,8.961104E-1,-1.3623815E0,-1.6161276E0,-1.3784696E0,-8.9003995E-2,-1.4098303E0,-1.7308816E-1,-9.2096806E-1,7.120782E-1,-1.5847371E0,-7.6535505E-1,-1.7185397E-2,1.5057555E0,-1.4771976E0,-5.056029E-1,-1.5283138E0,-1.2090498E-2,-3.8174108E-2,-1.0159392E0,1.0703993E0,1.819393E-1,1.3994371E0,8.4660673E-1,-1.2449057E0,-8.5355915E-2,-8.104685E-1,1.2329199E0,-1.6721134E-1,-1.1306933E-1,-1.6643496E-1,-1.3017601E-1,-1.1426175E-1,-1.6556738E-1,7.395184E-2,-1.07536845E-1,-5.0608106E-2,-1.5149246E-1,6.1965287E-2,-5.757425E-2,-4.2453427E-2,-1.47993E-1,-6.800051E-2,1.4265117E-1,-9.578488E-2,-1.643746E-1,-1.372709E-1,6.518852E-2,2.1485865E-2,-9.421279E-2,-2.686852E-2,1.6392905E-1,-1.5501952E-1,-4.8091546E-2,2.3537805E-2,-1.358497E-1,-9.4078675E-2,-1.6273761E-1,6.882927E-2,-7.232174E-2,2.2999296E-2,-1.2567745E-1,1.9153913E-2,1.21775724E-1,-1.2765226E-2,1.1487372E-1,1.4844511E-1,9.444599E-2,1.202238E-1,5.1691122E-2,-8.533951E-2,-1.6262989E-1,8.7080285E-2,-4.6900883E-2,-3.7857704E-3,-1.4396928E-1,1.337218E-1,-1.20941795E-1],"categories":[],"categories_nodes":[],"categories_segments":[],"categories_sizes":[],"default_left":[0,0,0,0,0,0,0,0,0,0,0,0,0,0,0,0,0,0,0,0,0,0,0,0,0,0,0,0,0,0,0,0,0,0,0,0,0,0,0,0,0,0,0,0,0,0,0,0,0,0,0,0,0,0,0,0,0,0,0,0,0,0,0,0,0,0,0,0,0,0,0,0,0,0,0,0,0,0,0,0,0,0,0,0,0,0,0,0,0,0,0,0,0,0,0,0,0,0,0,0,0,0,0,0,0,0,0],"id":2,"left_children":[1,3,5,7,9,11,13,15,17,19,21,23,25,27,29,-1,31,33,35,37,39,41,43,45,47,-1,-1,49,51,53,55,57,59,61,63,65,67,69,71,73,75,77,79,81,83,85,-1,87,89,91,93,95,97,99,101,103,105,-1,-1,-1,-1,-1,-1,-1,-1,-1,-1,-1,-1,-1,-1,-1,-1,-1,-1,-1,-1,-1,-1,-1,-1,-1,-1,-1,-1,-1,-1,-1,-1,-1,-1,-1,-1,-1,-1,-1,-1,-1,-1,-1,-1,-1,-1,-1,-1,-1,-1],"loss_changes":[2.1665566E3,3.5241113E2,2.8551477E2,7.12052E1,2.6107724E2,2.8382545E1,2.831183E2,8.101807E0,6.274243E1,1.5650238E1,1.7796724E2,1.0747612E1,4.7053275E0,1.1496594E2,1.4871855E2,0E0,6.1156006E0,1.012204E1,4.114031E1,1.0034042E1,5.292389E0,1.4110545E2,1.5114807E1,3.086029E0,6.9135647E0,0E0,0E0,9.438167E1,6.2354004E1,4.2924088E1,4.657446E1,1.7256134E1,1.5632324E0,7.819275E0,7.0907893E0,2.2861557E0,4.1533596E1,2.6747923E0,6.4607935E0,3.538208E0,1.201491E1,1.0291556E2,1.7093826E1,4.7694244E0,1.5148779E1,8.7914276E-1,0E0,6.682998E0,6.7600574E0,3.0636627E1,7.251411E1,2.4197144E1,3.5053665E1,1.1475357E1,1.9337118E1,6.414953E0,1.8596329E1,0E0,0E0,0E0,0E0,0E0,0E0,0E0,0E0,0E0,0E0,0E0,0E0,0E0,0E0,0E0,0E0,0E0,0E0,0E0,0E0,0E0,0E0,0E0,0E0,0E0,0E0,0E0,0E0,0E0,0E0,0E0,0E0,0E0,0E0,0E0,0E0,0E0,0E0,0E0,0E0,0E0,0E0,0E0,0E0,0E0,0E0,0E0,0E0,0E0,0E0],"parents":[2147483647,0,0,1,1,2,2,3,3,4,4,5,5,6,6,7,7,8,8,9,9,10,10,11,11,12,12,13,13,14,14,16,16,17,17,18,18,19,19,20,20,21,21,22,22,23,23,24,24,27,27,28,28,29,29,30,30,31,31,32,32,33,33,34,34,35,35,36,36,37,37,38,38,39,39,40,40,41,41,42,42,43,43,44,44,45,45,47,47,48,48,49,49,50,50,51,51,52,52,53,53,54,54,55,55,56,56],"right_children":[2,4,6,8,10,12,14,16,18,20,22,24,26,28,30,-1,32,34,36,38,40,42,44,46,48,-1,-1,50,52,54,56,58,60,62,64,66,68,70,72,74,76,78,80,82,84,86,-1,88,90,92,94,96,98,100,102,104,106,-1,-1,-1,-1,-1,-1,-1,-1,-1,-1,-1,-1,-1,-1,-1,-1,-1,-1,-1,-1,-1,-1,-1,-1,-1,-1,-1,-1,-1,-1,-1,-1,-1,-1,-1,-1,-1,-1,-1,-1,-1,-1,-1,-1,-1,-1,-1,-1,-1,-1],"split_conditions":[-1.0574674E-1,-2.2856043E-1,-1.5084026E0,-6.384079E-1,-1.0628293E0,-1.3892739E0,8.038367E-1,-7.799333E-1,-5.4544234E-1,1.9638799E-1,8.6104655E-1,6.209088E-1,1.4628601E0,-3.535977E-1,7.7642995E-1,2.767129E-2,2.7206072E-1,1.314345E0,-1.0628293E0,7.3042274E-1,-1.1205584E0,-2.5830954E-1,9.274871E-1,1.9032034E0,-3.9090377E-1,1.407435E-1,-3.57448E-2,-2.277397E-1,-4.1398108E-1,-4.1319396E-2,-2.545127E-1,-1.1205584E0,8.2822096E-1,2.2309764E-1,6.504639E-1,-5.0180644E-1,-2.1005735E-1,6.6496015E-2,2.0335992E-1,-8.9500356E-1,-7.023656E-1,8.6229765E-1,-7.116843E-2,-2.598112E-1,2.166962E0,-1.1998063E0,-1.2090498E-2,8.900433E-1,-1.5498408E0,-4.784526E-1,8.2822096E-1,8.7355345E-1,-2.9370415E-1,-1.9073799E-1,-1.3704176E0,3.77799E-1,1.1095254E0,-1.6721134E-1,-1.1306933E-1,-1.6643496E-1,-1.3017601E-1,-1.1426175E-1,-1.6556738E-1,7.395184E-2,-1.07536845E-1,-5.0608106E-2,-1.5149246E-1,6.1965287E-2,-5.757425E-2,-4.2453427E-2,-1.47993E-1,-6.800051E-2,1.4265117E-1,-9.578488E-2,-1.643746E-1,-1.372709E-1,6.518852E-2,2.1485865E-2,-9.421279E-2,-2.686852E-2,1.6392905E-1,-1.5501952E-1,-4.8091546E-2,2.3537805E-2,-1.358497E-1,-9.4078675E-2,-1.6273761E-1,6.882927E-2,-7.232174E-2,2.2999296E-2,-1.2567745E-1,1.9153913E-2,1.21775724E-1,-1.2765226E-2,1.1487372E-1,1.4844511E-1,9.444599E-2,1.202238E-1,5.1691122E-2,-8.533951E-2,-1.6262989E-1,8.7080285E-2,-4.6900883E-2,-3.7857704E-3,-1.4396928E-1,1.337218E-1,-1.20941795E-1],"split_indices":[28,18,9,28,11,11,9,4,18,22,10,28,7,18,14,0,9,14,11,14,11,10,14,18,3,0,0,9,22,18,0,11,14,9,6,18,9,5,18,0,28,13,14,28,10,14,0,16,16,25,14,7,9,13,25,25,13,0,0,0,0,0,0,0,0,0,0,0,0,0,0,0,0,0,0,0,0,0,0,0,0,0,0,0,0,0,0,0,0,0,0,0,0,0,0,0,0,0,0,0,0,0,0,0,0,0,0],"split_type":[0,0,0,0,0,0,0,0,0,0,0,0,0,0,0,0,0,0,0,0,0,0,0,0,0,0,0,0,0,0,0,0,0,0,0,0,0,0,0,0,0,0,0,0,0,0,0,0,0,0,0,0,0,0,0,0,0,0,0,0,0,0,0,0,0,0,0,0,0,0,0,0,0,0,0,0,0,0,0,0,0,0,0,0,0,0,0,0,0,0,0,0,0,0,0,0,0,0,0,0,0,0,0,0,0,0,0],"sum_hessian":[3.4251355E3,1.674257E3,1.7508784E3,8.563025E2,8.1795447E2,8.441744E1,1.666461E3,5.365415E2,3.1976102E2,1.7211398E2,6.458405E2,7.8427155E1,5.9902873E0,1.4507283E3,2.157327E2,2.219658E0,5.3432184E2,1.5847737E2,1.6128366E2,1.60356E1,1.5607838E2,5.459298E2,9.991069E1,4.6782402E1,3.1644756E1,4.4924293E0,1.4978578E0,4.7889035E2,9.7183795E2,1.3751627E2,7.821642E1,2.6971762E2,2.6460422E2,1.5181491E2,6.6624546E0,3.3270042E1,1.2801363E2,1.1589818E1,4.4457827E0,1.4424333E2,1.1835049E1,4.7722595E2,6.870385E1,7.762396E1,2.2286728E1,4.4822926E1,1.9594738E0,1.1421543E1,2.0223213E1,2.3845248E2,2.4043787E2,6.6710657E2,3.047314E2,8.680641E1,5.070985E1,1.2611591E1,6.5604836E1,1.1257423E2,1.5714337E2,2.2541467E2,3.9189545E1,8.4987854E1,6.682706E1,3.7018585E0,2.9605958E0,4.1707816E0,2.9099262E1,4.285464E1,8.515898E1,7.1648607E0,4.4249573E0,1.4766767E0,2.969106E0,1.403781E1,1.3020552E2,8.356065E0,3.4789844E0,3.8204132E2,9.518465E1,4.6851826E0,6.401867E1,7.171318E1,5.910778E0,1.2250482E1,1.0036247E1,8.127293E0,3.6695633E1,5.47003E0,5.9515133E0,3.2159066E0,1.7007307E1,3.4667835E1,2.0378464E2,1.8269814E2,5.7739735E1,5.5998834E2,1.07118225E2,1.4518042E2,1.59551E2,4.4562027E1,4.224439E1,1.4082451E1,3.66274E1,6.208007E0,6.403585E0,6.3391197E1,2.213637E0],"tree_param":{"num_deleted":"0","num_feature":"37","num_nodes":"107","size_leaf_vector":"1"}},{"base_weights":[-1.5360628E-3,7.9050076E-1,-6.5357995E-1,5.8078253E-1,1.5799853E0,-1.0570301E0,-1.838624E-1,-1.9519487E-1,8.814498E-1,6.928282E-2,1.625307E0,-1.2259401E0,1.6747648E-1,-4.0962088E-1,1.35661E0,-6.0968596E-1,4.4168043E-1,1.040592E0,3.936137E-2,-7.7013785E-1,1.3156115E-1,-3.8183834E-2,1.641047E0,-1.3620611E0,-8.581555E-1,1.3887296E0,-7.2881746E-1,7.755408E-3,-1.2011737E0,-5.614427E-1,1.5138663E0,-2.2082445E-1,-1.2323422E0,6.825212E-1,-3.7402698E-1,-6.6486865E-1,1.1269473E0,-6.6450185E-1,5.809323E-1,6.6143595E-2,-1.3903032E-1,1.6460122E0,3.0032972E-2,-1.2045522E0,-1.5314224E0,-1.2737405E0,-5.0624746E-1,-1.2174989E-1,1.5430303E0,-1.3001946E0,1.7968708E-1,-1.343813E0,3.4261572E-1,-8.837998E-1,-1.4210409E0,4.2800137E-1,-1.4204262E-1,-2.0086059E-1,1.5681733E0,-1.5526128E-1,-3.3396282E-4,-1.5691094E-1,-4.6049625E-2,-9.771078E-2,7.906964E-2,-6.23219E-2,8.4161416E-2,-1.4568226E-1,-3.4257103E-2,1.3454978E-1,8.31554E-2,-1.2443288E-1,-1.7976211E-2,8.2375616E-2,-8.138212E-2,1.6490984E-1,4.2649433E-2,-1.4215557E-1,-9.674968E-2,-2.3184797E-2,-1.5374528E-1,-8.248576E-2,-1.4776696E-1,-1.4854282E-1,-2.535147E-2,-3.4660403E-2,1.6099969E-1,-1.4203995E-1,2.5939522E-2,1.2644516E-1,-6.30483E-2,-1.390727E-1,9.326107E-3,1.06653295E-1,-4.725766E-3,-9.971961E-2,-1.6224014E-2,-1.4760791E-1,-4.3704353E-2,1.15560904E-1,-5.4374225E-2,5.630226E-2,-7.928365E-2,-1.01301735E-2,1.6085672E-1],"categories":[],"categories_nodes":[],"categories_segments":[],"categories_sizes":[],"default_left":[0,0,0,0,0,0,0,0,0,0,0,0,0,0,0,0,0,0,0,0,0,0,0,0,0,0,0,0,0,0,0,0,0,0,0,0,0,0,0,0,0,0,0,0,0,0,0,0,0,0,0,0,0,0,0,0,0,0,0,0,0,0,0,0,0,0,0,0,0,0,0,0,0,0,0,0,0,0,0,0,0,0,0,0,0,0,0,0,0,0,0,0,0,0,0,0,0,0,0,0,0,0,0,0,0],"id":3,"left_children":[1,3,5,7,9,11,13,15,17,19,21,23,25,27,29,31,33,35,37,39,-1,-1,41,43,45,47,49,51,53,55,57,59,61,63,65,67,69,71,73,-1,-1,75,-1,77,79,81,83,-1,85,87,89,91,93,95,97,99,-1,101,103,-1,-1,-1,-1,-1,-1,-1,-1,-1,-1,-1,-1,-1,-1,-1,-1,-1,-1,-1,-1,-1,-1,-1,-1,-1,-1,-1,-1,-1,-1,-1,-1,-1,-1,-1,-1,-1,-1,-1,-1,-1,-1,-1,-1,-1,-1],"loss_changes":[1.7486239E3,2.5198438E2,3.5162598E2,2.8245105E2,2.164032E1,2.0687866E2,2.9934842E2,8.964815E1,1.16718445E2,1.1984508E1,1.0570068E1,4.2557007E1,1.3448094E2,2.4804283E2,3.4132156E1,4.9358208E1,2.659995E1,1.0879535E2,5.3649826E1,7.045624E0,0E0,0E0,1.3651733E0,1.49227295E1,3.4282013E1,2.2813255E1,3.7148026E1,2.2314166E2,1.65979E1,8.372204E0,9.950867E0,3.6873993E1,1.9534637E1,1.9399841E1,9.918793E0,8.488083E0,4.375116E1,1.682285E1,2.7628605E1,0E0,0E0,2.4499512E-1,0E0,1.5669098E1,1.8476562E0,8.553558E0,3.205779E1,0E0,6.954384E0,8.679398E0,2.5629896E1,6.8587036E0,1.1173615E2,8.632179E0,7.3558044E0,4.157871E0,0E0,2.2607327E0,6.993088E0,0E0,0E0,0E0,0E0,0E0,0E0,0E0,0E0,0E0,0E0,0E0,0E0,0E0,0E0,0E0,0E0,0E0,0E0,0E0,0E0,0E0,0E0,0E0,0E0,0E0,0E0,0E0,0E0,0E0,0E0,0E0,0E0,0E0,0E0,0E0,0E0,0E0,0E0,0E0,0E0,0E0,0E0,0E0,0E0,0E0,0E0],"parents":[2147483647,0,0,1,1,2,2,3,3,4,4,5,5,6,6,7,7,8,8,9,9,10,10,11,11,12,12,13,13,14,14,15,15,16,16,17,17,18,18,19,19,22,22,23,23,24,24,25,25,26,26,27,27,28,28,29,29,30,30,31,31,32,32,33,33,34,34,35,35,36,36,37,37,38,38,41,41,43,43,44,44,45,45,46,46,48,48,49,49,50,50,51,51,52,52,53,53,54,54,55,55,57,57,58,58],"right_children":[2,4,6,8,10,12,14,16,18,20,22,24,26,28,30,32,34,36,38,40,-1,-1,42,44,46,48,50,52,54,56,58,60,62,64,66,68,70,72,74,-1,-1,76,-1,78,80,82,84,-1,86,88,90,92,94,96,98,100,-1,102,104,-1,-1,-1,-1,-1,-1,-1,-1,-1,-1,-1,-1,-1,-1,-1,-1,-1,-1,-1,-1,-1,-1,-1,-1,-1,-1,-1,-1,-1,-1,-1,-1,-1,-1,-1,-1,-1,-1,-1,-1,-1,-1,-1,-1,-1,-1],"split_conditions":[-7.763819E-2,5.9121156E-1,-6.1577666E-1,4.2652747E-1,-3.6350638E-1,8.5393333E-1,7.29441E-1,-8.073133E-2,4.883543E-1,7.116636E-1,-7.613393E-1,8.354247E-2,1.3040948E0,1.6313495E-1,-5.1694745E-1,2.7206072E-1,-1.8123329E-1,-1.5084026E0,-1.1310472E-1,-3.2176837E-1,1.3156115E-1,-3.8183834E-2,2.3345068E0,3.038498E-1,-1.0358683E0,-7.580497E-1,7.2513956E-1,-1.5084026E0,6.694222E-1,5.4283357E-1,-4.799818E-1,-1.5084026E0,-1.4017725E-1,-1.5084026E0,4.7530484E-1,-9.246274E-1,-1.0134332E0,-4.0345773E-1,-5.8820367E-1,6.6143595E-2,-1.3903032E-1,1.7923484E0,3.0032972E-2,-1.0220977E0,-1.943125E0,-3.3494294E-2,-1.5084026E0,-1.2174989E-1,-3.652222E-1,4.541097E-1,1.618606E0,8.509696E-1,5.8040764E-2,6.0455835E-1,6.892864E-1,-2.1925044E-1,-1.4204262E-1,3.4479347E-1,-5.6688744E-1,-1.5526128E-1,-3.3396282E-4,-1.5691094E-1,-4.6049625E-2,-9.771078E-2,7.906964E-2,-6.23219E-2,8.4161416E-2,-1.4568226E-1,-3.4257103E-2,1.3454978E-1,8.31554E-2,-1.2443288E-1,-1.7976211E-2,8.2375616E-2,-8.138212E-2,1.6490984E-1,4.2649433E-2,-1.4215557E-1,-9.674968E-2,-2.3184797E-2,-1.5374528E-1,-8.248576E-2,-1.4776696E-1,-1.4854282E-1,-2.535147E-2,-3.4660403E-2,1.6099969E-1,-1.4203995E-1,2.5939522E-2,1.2644516E-1,-6.30483E-2,-1.390727E-1,9.326107E-3,1.06653295E-1,-4.725766E-3,-9.971961E-2,-1.6224014E-2,-1.4760791E-1,-4.3704353E-2,1.15560904E-1,-5.4374225E-2,5.630226E-2,-7.928365E-2,-1.01301735E-2,1.6085672E-1],"split_indices":[22,23,28,28,14,23,23,18,9,23,18,18,22,9,3,9,24,9,0,9,0,0,9,9,28,14,3,9,9,22,14,9,3,9,23,8,24,18,22,0,0,6,0,28,16,4,9,0,6,18,22,28,23,23,23,6,0,24,9,0,0,0,0,0,0,0,0,0,0,0,0,0,0,0,0,0,0,0,0,0,0,0,0,0,0,0,0,0,0,0,0,0,0,0,0,0,0,0,0,0,0,0,0,0,0],"split_type":[0,0,0,0,0,0,0,0,0,0,0,0,0,0,0,0,0,0,0,0,0,0,0,0,0,0,0,0,0,0,0,0,0,0,0,0,0,0,0,0,0,0,0,0,0,0,0,0,0,0,0,0,0,0,0,0,0,0,0,0,0,0,0,0,0,0,0,0,0,0,0,0,0,0,0,0,0,0,0,0,0,0,0,0,0,0,0,0,0,0,0,0,0,0,0,0,0,0,0,0,0,0,0,0,0],"sum_hessian":[3.3839268E3,1.5277749E3,1.8561517E3,1.2085885E3,3.1918643E2,9.977234E2,8.584284E2,3.3751944E2,8.7106903E2,9.434735E0,3.097517E2,8.7685E2,1.2087337E2,7.494015E2,1.0902687E2,2.0457661E2,1.3294283E2,7.323175E2,1.3875153E2,5.8180394E0,3.616696E0,2.179769E0,3.0757193E2,6.378132E2,2.3903685E2,5.0976734E1,6.989664E1,4.912403E2,2.5816122E2,8.018557E0,1.01008316E2,1.26863205E2,7.771341E1,1.0285913E2,3.008369E1,3.4914867E1,6.9740265E2,6.0156425E1,7.85951E1,1.6897253E0,4.128314E0,3.061359E2,1.436037E0,3.3497922E2,3.0283392E2,1.08270874E2,1.3076598E2,2.4279935E0,4.854874E1,4.271269E1,2.7183947E1,9.688399E1,3.943563E2,1.0789356E2,1.5026767E2,3.9053679E0,4.1131883E0,2.9614441E0,9.8046875E1,1.6882559E1,1.09980644E2,5.3296787E1,2.441662E1,5.746036E0,9.711309E1,2.5438662E1,4.64503E0,8.991196E0,2.5923672E1,3.9859982E2,2.9880283E2,2.6584171E1,3.3572254E1,6.7350586E1,1.1244517E1,3.0493E2,1.205907E0,1.7205722E2,1.6292201E2,1.6574956E0,3.0117642E2,3.555137E1,7.2719505E1,2.5745434E1,1.0502054E2,1.4675978E0,4.7081142E1,3.9798588E1,2.9140985E0,1.1435403E1,1.5748544E1,9.3919754E1,2.9642277E0,1.3752347E2,2.5683282E2,9.279053E1,1.5103034E1,1.4173808E2,8.529594E0,2.1838634E0,1.7215044E0,1.2405837E0,1.7208605E0,2.222158E0,9.5824715E1],"tree_param":{"num_deleted":"0","num_feature":"37","num_nodes":"105","size_leaf_vector":"1"}},{"base_weights":[-7.7956994E-3,-6.403681E-1,7.079594E-1,-1.0170271E0,-1.8453048E-1,9.617077E-2,9.371834E-1,-1.2810198E0,-6.745622E-1,-1.193652E0,8.032194E-2,4.707419E-1,-4.0435877E-1,1.0191844E0,-7.913527E-1,-1.0275937E0,-1.3504331E0,-1.0997491E0,-3.3788285E-1,-1.4166338E0,-4.600964E-1,2.6103815E-1,-1.1276398E0,-8.4293723E-1,7.8489065E-1,-5.946685E-1,6.581778E-1,1.1448919E0,4.2372546E-1,-1.1787136E0,4.9414808E-1,-7.167056E-1,-1.3901435E0,-1.4313608E0,-1.2089684E0,-8.2072854E-1,-1.3652145E0,-9.28129E-2,-1.0510436E0,-5.777138E-1,-1.447176E0,-1.1481773E0,1.5707162E-1,1.0510639E-1,1.1786517E0,-3.5011467E-1,-1.2348478E0,-1.1313915E0,-1.3657787E-1,-1.581684E-2,9.131159E-1,-1.1104827E0,-1.9709174E-1,-2.3831324E-1,1.1185368E0,7.441239E-1,1.281567E0,6.533618E-1,-3.1808177E-1,-1.9939166E-1,-1.4590213E0,1.1813701E0,-5.5018944E-1,-1.2784559E-1,-3.7421204E-2,5.296827E-4,-1.4226358E-1,-1.4346647E-1,-3.145313E-2,-1.4756422E-1,-1.0409198E-1,-1.4156494E-1,-5.36439E-2,-4.2252768E-2,-1.3997018E-1,-1.2948416E-1,7.5876527E-3,-1.503108E-1,-4.2310905E-2,-0E0,-9.555548E-2,-8.4088035E-2,-1.4849648E-1,4.634192E-2,-1.3312407E-1,1.2543857E-1,-4.951409E-2,2.7725518E-2,-9.37176E-2,1.3284846E-1,-4.935115E-2,-1.2665185E-1,2.478681E-2,-8.3268166E-2,-1.441331E-1,-1.3070051E-1,-2.3179641E-2,-1.1570289E-1,1.6259644E-2,7.74849E-2,-6.9800735E-2,9.7330354E-2,-9.876673E-3,-1.3784502E-1,-7.2579496E-2,-6.113292E-3,-1.21626094E-1,-5.601597E-2,9.7287975E-2,1.2875819E-1,-1.8395502E-2,1.09487295E-1,2.2605592E-2,9.0236895E-2,1.3697188E-1,8.492142E-3,1.0163851E-1,6.897205E-2,-6.8126045E-2,-7.864649E-2,1.11918606E-1,-7.62054E-2,-1.5772207E-1,1.2785611E-2,1.3373686E-1,-1.270683E-1,5.0022043E-2],"categories":[],"categories_nodes":[],"categories_segments":[],"categories_sizes":[],"default_left":[0,0,0,0,0,0,0,0,0,0,0,0,0,0,0,0,0,0,0,0,0,0,0,0,0,0,0,0,0,0,0,0,0,0,0,0,0,0,0,0,0,0,0,0,0,0,0,0,0,0,0,0,0,0,0,0,0,0,0,0,0,0,0,0,0,0,0,0,0,0,0,0,0,0,0,0,0,0,0,0,0,0,0,0,0,0,0,0,0,0,0,0,0,0,0,0,0,0,0,0,0,0,0,0,0,0,0,0,0,0,0,0,0,0,0,0,0,0,0,0,0,0,0,0,0,0,0],"id":4,"left_children":[1,3,5,7,9,11,13,15,17,19,21,23,25,27,29,31,33,35,37,39,41,43,45,47,49,51,53,55,57,59,61,63,65,67,69,71,73,75,77,79,81,83,85,87,89,91,93,95,97,99,101,103,105,107,109,111,113,115,117,119,121,123,125,-1,-1,-1,-1,-1,-1,-1,-1,-1,-1,-1,-1,-1,-1,-1,-1,-1,-1,-1,-1,-1,-1,-1,-1,-1,-1,-1,-1,-1,-1,-1,-1,-1,-1,-1,-1,-1,-1,-1,-1,-1,-1,-1,-1,-1,-1,-1,-1,-1,-1,-1,-1,-1,-1,-1,-1,-1,-1,-1,-1,-1,-1,-1,-1],"loss_changes":[1.4949581E3,3.006466E2,2.170332E2,8.568115E1,2.1252658E2,7.958229E1,1.605122E2,7.8826904E0,5.9597107E1,2.6197662E1,1.377599E2,1.0084127E2,3.7119293E1,7.990393E1,2.631112E1,1.2398247E1,2.82312E0,1.2363525E1,4.1022034E1,2.1943817E0,1.7315975E1,7.830083E1,6.2540817E0,9.350143E0,2.02781E1,3.1370094E1,1.1906182E1,4.747046E1,3.2486683E1,1.0511127E1,9.739671E0,1.2284649E1,2.6208496E0,3.397827E-1,5.383255E0,1.4755081E1,2.2533875E0,3.6067635E1,1.62425E1,1.4311154E0,1.2901917E0,6.3581715E0,1.640751E1,8.460474E1,2.0670013E1,6.6953535E0,4.522827E0,4.8080673E0,4.849947E0,1.5634855E1,1.050618E1,5.6957397E0,1.2084881E1,4.498232E0,4.473963E0,4.1110947E1,2.061267E1,2.9720615E1,1.7055258E1,8.687621E0,1.1035767E0,9.9085903E-1,4.963056E0,0E0,0E0,0E0,0E0,0E0,0E0,0E0,0E0,0E0,0E0,0E0,0E0,0E0,0E0,0E0,0E0,0E0,0E0,0E0,0E0,0E0,0E0,0E0,0E0,0E0,0E0,0E0,0E0,0E0,0E0,0E0,0E0,0E0,0E0,0E0,0E0,0E0,0E0,0E0,0E0,0E0,0E0,0E0,0E0,0E0,0E0,0E0,0E0,0E0,0E0,0E0,0E0,0E0,0E0,0E0,0E0,0E0,0E0,0E0,0E0,0E0,0E0,0E0,0E0],"parents":[2147483647,0,0,1,1,2,2,3,3,4,4,5,5,6,6,7,7,8,8,9,9,10,10,11,11,12,12,13,13,14,14,15,15,16,16,17,17,18,18,19,19,20,20,21,21,22,22,23,23,24,24,25,25,26,26,27,27,28,28,29,29,30,30,31,31,32,32,33,33,34,34,35,35,36,36,37,37,38,38,39,39,40,40,41,41,42,42,43,43,44,44,45,45,46,46,47,47,48,48,49,49,50,50,51,51,52,52,53,53,54,54,55,55,56,56,57,57,58,58,59,59,60,60,61,61,62,62],"right_children":[2,4,6,8,10,12,14,16,18,20,22,24,26,28,30,32,34,36,38,40,42,44,46,48,50,52,54,56,58,60,62,64,66,68,70,72,74,76,78,80,82,84,86,88,90,92,94,96,98,100,102,104,106,108,110,112,114,116,118,120,122,124,126,-1,-1,-1,-1,-1,-1,-1,-1,-1,-1,-1,-1,-1,-1,-1,-1,-1,-1,-1,-1,-1,-1,-1,-1,-1,-1,-1,-1,-1,-1,-1,-1,-1,-1,-1,-1,-1,-1,-1,-1,-1,-1,-1,-1,-1,-1,-1,-1,-1,-1,-1,-1,-1,-1,-1,-1,-1,-1,-1,-1,-1,-1,-1,-1],"split_conditions":[-4.734321E-3,-1.6731848E-1,-7.877681E-1,-6.4946824E-1,-1.0628293E0,-2.0213188E-1,1.0477281E0,-3.7111428E-1,-5.5038357E-1,6.823369E-1,1.0265851E0,-1.3892739E0,1.5107133E0,-2.7923003E-1,6.9117504E-1,2.3813926E-1,-4.6641162E-1,6.2266126E-2,6.8831176E-1,-2.1898632E0,-7.478128E-1,-2.5830954E-1,-9.991796E-1,2.830504E-1,-8.6359894E-1,-2.6642826E-1,-7.5098854E-1,-4.5083758E-1,3.6387137E-1,2.300624E-1,9.64714E-2,-1.1205584E0,-1.4827778E0,3.1047173E0,-7.334534E-1,-1.1205584E0,-4.6647787E-1,-1.2391094E0,-1.4271213E-1,9.946859E-1,-6.1284155E-1,-9.3719435E-1,-7.4517596E-1,1.0648067E0,5.0143504E-1,-9.180642E-1,9.062677E-1,1.7744388E-1,-1.356636E0,5.8657485E-1,4.700465E-1,3.823627E-1,3.9216125E-1,9.324594E-1,1.2578436E0,7.870471E-2,-6.6326576E-1,6.364266E-2,-3.1631216E-1,2.3250276E-1,-6.445732E-1,-7.453821E-1,-6.782624E-2,-1.2784559E-1,-3.7421204E-2,5.296827E-4,-1.4226358E-1,-1.4346647E-1,-3.145313E-2,-1.4756422E-1,-1.0409198E-1,-1.4156494E-1,-5.36439E-2,-4.2252768E-2,-1.3997018E-1,-1.2948416E-1,7.5876527E-3,-1.503108E-1,-4.2310905E-2,-0E0,-9.555548E-2,-8.4088035E-2,-1.4849648E-1,4.634192E-2,-1.3312407E-1,1.2543857E-1,-4.951409E-2,2.7725518E-2,-9.37176E-2,1.3284846E-1,-4.935115E-2,-1.2665185E-1,2.478681E-2,-8.3268166E-2,-1.441331E-1,-1.3070051E-1,-2.3179641E-2,-1.1570289E-1,1.6259644E-2,7.74849E-2,-6.9800735E-2,9.7330354E-2,-9.876673E-3,-1.3784502E-1,-7.2579496E-2,-6.113292E-3,-1.21626094E-1,-5.601597E-2,9.7287975E-2,1.2875819E-1,-1.8395502E-2,1.09487295E-1,2.2605592E-2,9.0236895E-2,1.3697188E-1,8.492142E-3,1.0163851E-1,6.897205E-2,-6.8126045E-2,-7.864649E-2,1.11918606E-1,-7.62054E-2,-1.5772207E-1,1.2785611E-2,1.3373686E-1,-1.270683E-1,5.0022043E-2],"split_indices":[28,18,15,28,11,9,13,13,18,12,10,11,28,22,28,9,18,9,13,25,28,10,8,8,25,18,25,18,9,25,8,11,25,12,11,11,22,11,0,24,4,9,8,13,8,1,9,25,0,11,13,12,13,8,9,9,0,15,15,11,9,0,11,0,0,0,0,0,0,0,0,0,0,0,0,0,0,0,0,0,0,0,0,0,0,0,0,0,0,0,0,0,0,0,0,0,0,0,0,0,0,0,0,0,0,0,0,0,0,0,0,0,0,0,0,0,0,0,0,0,0,0,0,0,0,0,0],"split_type":[0,0,0,0,0,0,0,0,0,0,0,0,0,0,0,0,0,0,0,0,0,0,0,0,0,0,0,0,0,0,0,0,0,0,0,0,0,0,0,0,0,0,0,0,0,0,0,0,0,0,0,0,0,0,0,0,0,0,0,0,0,0,0,0,0,0,0,0,0,0,0,0,0,0,0,0,0,0,0,0,0,0,0,0,0,0,0,0,0,0,0,0,0,0,0,0,0,0,0,0,0,0,0,0,0,0,0,0,0,0,0,0,0,0,0,0,0,0,0,0,0,0,0,0,0,0,0],"sum_hessian":[3.2998408E3,1.7518395E3,1.5480013E3,9.5843396E2,7.934055E2,4.2242456E2,1.1255768E3,5.395125E2,4.1892145E2,1.6429424E2,6.2911127E2,2.4176163E2,1.8066293E2,1.0750453E3,5.0531414E1,1.1970766E2,4.1980487E2,1.8399442E2,2.3492702E2,1.2517635E2,3.911788E1,5.479955E2,8.1115776E1,4.627045E1,1.9549118E2,1.5367316E2,2.6989777E1,8.8675214E2,1.8829321E2,3.8954185E1,1.1577229E1,6.61965E1,5.3511154E1,2.6078992E2,1.5901495E2,9.188547E1,9.2108955E1,1.757893E2,5.913771E1,5.211725E0,1.1996463E2,1.8166111E1,2.095177E1,4.6944528E2,7.8550186E1,1.0459183E1,7.065659E1,3.2326187E1,1.3944264E1,2.6997993E1,1.684932E2,6.6000175E1,8.767298E1,9.247178E0,1.77426E1,2.2733147E2,6.5942065E2,1.4397717E2,4.431603E1,9.128765E0,2.982542E1,6.9610662E0,4.6161623E0,2.3927082E1,4.2269424E1,1.1666428E0,5.234451E1,2.5964767E2,1.1422384E0,5.8231735E1,1.0078321E2,2.8310308E1,6.3575157E1,3.82082E0,8.828814E1,2.0885145E1,1.5490416E2,3.3481E1,2.5656713E1,2.3738577E0,2.8378675E0,8.557864E0,1.1140676E2,1.6410873E0,1.6525023E1,7.523654E0,1.3428117E1,4.036125E2,6.58328E1,7.233408E1,6.2161036E0,3.7545733E0,6.704609E0,2.5841759E1,4.481484E1,2.6574444E1,5.751743E0,2.5870306E0,1.1357234E1,1.2373995E1,1.4623999E1,1.5916301E2,9.330185E0,3.7225937E1,2.8774239E1,7.837565E1,9.297337E0,7.7957225E0,1.4514552E0,1.5782478E1,1.9601209E0,1.3477675E2,9.255471E1,1.2671359E2,5.3270703E2,5.6701088E1,8.727609E1,1.1428383E1,3.2887646E1,6.648174E0,2.4805908E0,5.5272107E0,2.4298208E1,1.2151754E0,5.745891E0,2.6701565E0,1.9460057E0],"tree_param":{"num_deleted":"0","num_feature":"37","num_nodes":"127","size_leaf_vector":"1"}},{"base_weights":[-8.138116E-3,-7.895412E-1,4.9458605E-1,-9.6404344E-1,3.9184015E-2,3.347086E-1,1.4002242E0,-6.260157E-1,-1.2445002E0,1.2330524E0,-7.4508667E-1,-1.3315998E-1,7.564748E-1,1.4427392E0,-1.146663E0,-4.3681294E-1,-1.2502997E0,-9.832529E-1,-1.362975E0,-1.7947453E-1,1.4132395E0,-1.1364083E0,1.531261E-1,4.9314562E-2,-1.0410355E0,3.903355E-1,1.1232015E0,1.479411E0,-1.175426E-1,-1.3950884E-1,-1.244047E-2,8.126238E-2,-7.247276E-1,-4.6706384E-1,-1.331248E0,-1.1746159E0,-3.7558997E-1,-1.3758087E0,-5.73642E-1,1.13488995E-1,-7.7970684E-1,-1.3811453E-1,1.4783511E0,-2.0642023E-1,-1.2550625E0,1.0066917E0,-9.2951375E-1,-3.8789833E-1,3.9270487E-1,-1.1981416E0,-1.17238484E-1,2.9519114E-1,1.2547334E0,1.3148847E0,8.505222E-1,1.4906417E0,-3.915206E-2,-8.2752573E-1,1.0053714E-1,-9.751546E-2,5.622635E-2,1.8496879E-3,-9.540768E-2,8.558254E-2,-8.13983E-2,-3.303215E-2,-1.3531683E-1,1.1882889E-1,-1.21745765E-1,-8.777562E-2,6.0696762E-2,-4.94045E-2,-1.3821167E-1,-1.16452E-1,3.077299E-2,3.270354E-2,-1.2610468E-1,-8.2405224E-2,3.8776126E-2,1.5259042E-1,7.27312E-3,-1.1783053E-1,6.5050445E-2,-1.3440062E-1,-6.2028527E-2,-6.990634E-2,1.3824952E-1,-1.291237E-1,-2.6014352E-3,2.4510428E-2,-5.759539E-2,9.537567E-3,9.4819106E-2,-7.790467E-2,-1.3645895E-1,-1.0154029E-1,6.113074E-2,7.7618198E-3,7.01831E-2,1.4028773E-1,-7.1213916E-2,1.3250244E-1,-4.581402E-2,6.1466742E-2,1.3185391E-1,1.5046817E-1,5.3365906E-3,-1.173373E-1,1.1498983E-2],"categories":[],"categories_nodes":[],"categories_segments":[],"categories_sizes":[],"default_left":[0,0,0,0,0,0,0,0,0,0,0,0,0,0,0,0,0,0,0,0,0,0,0,0,0,0,0,0,0,0,0,0,0,0,0,0,0,0,0,0,0,0,0,0,0,0,0,0,0,0,0,0,0,0,0,0,0,0,0,0,0,0,0,0,0,0,0,0,0,0,0,0,0,0,0,0,0,0,0,0,0,0,0,0,0,0,0,0,0,0,0,0,0,0,0,0,0,0,0,0,0,0,0,0,0,0,0,0,0],"id":5,"left_children":[1,3,5,7,9,11,13,15,17,19,21,23,25,27,29,31,33,35,37,39,41,43,45,47,49,51,53,55,57,-1,-1,59,61,63,65,67,69,71,73,-1,75,77,79,81,83,85,87,89,91,93,95,97,99,101,103,105,-1,107,-1,-1,-1,-1,-1,-1,-1,-1,-1,-1,-1,-1,-1,-1,-1,-1,-1,-1,-1,-1,-1,-1,-1,-1,-1,-1,-1,-1,-1,-1,-1,-1,-1,-1,-1,-1,-1,-1,-1,-1,-1,-1,-1,-1,-1,-1,-1,-1,-1,-1,-1],"loss_changes":[1.2765903E3,1.8412073E2,2.8566406E2,9.868219E1,2.089825E2,3.320904E2,3.376654E1,5.5840683E1,1.6169739E1,2.2904007E1,4.7602333E1,1.3238286E2,1.1822681E2,1.7012573E1,1.0416121E0,5.5180054E1,6.2171783E0,2.0652084E1,2.982666E0,9.399431E0,8.284805E0,9.966171E0,3.9447296E1,1.0006398E2,1.913504E1,3.6028786E1,2.1737305E1,6.689087E0,6.846994E0,0E0,0E0,6.790013E1,4.059175E1,6.211507E0,1.57164E0,1.5456863E1,2.2939564E1,1.2680664E0,4.664772E0,0E0,4.812834E0,1.8138123E0,4.7856293E0,1.0752535E1,3.659546E0,1.6310232E1,5.9907913E0,3.506726E1,6.1469563E1,6.6806183E0,1.4164719E1,3.5417053E1,1.3789703E1,5.3168945E0,1.9445938E1,5.492859E0,0E0,1.9484906E0,0E0,0E0,0E0,0E0,0E0,0E0,0E0,0E0,0E0,0E0,0E0,0E0,0E0,0E0,0E0,0E0,0E0,0E0,0E0,0E0,0E0,0E0,0E0,0E0,0E0,0E0,0E0,0E0,0E0,0E0,0E0,0E0,0E0,0E0,0E0,0E0,0E0,0E0,0E0,0E0,0E0,0E0,0E0,0E0,0E0,0E0,0E0,0E0,0E0,0E0,0E0],"parents":[2147483647,0,0,1,1,2,2,3,3,4,4,5,5,6,6,7,7,8,8,9,9,10,10,11,11,12,12,13,13,14,14,15,15,16,16,17,17,18,18,19,19,20,20,21,21,22,22,23,23,24,24,25,25,26,26,27,27,28,28,31,31,32,32,33,33,34,34,35,35,36,36,37,37,38,38,40,40,41,41,42,42,43,43,44,44,45,45,46,46,47,47,48,48,49,49,50,50,51,51,52,52,53,53,54,54,55,55,57,57],"right_children":[2,4,6,8,10,12,14,16,18,20,22,24,26,28,30,32,34,36,38,40,42,44,46,48,50,52,54,56,58,-1,-1,60,62,64,66,68,70,72,74,-1,76,78,80,82,84,86,88,90,92,94,96,98,100,102,104,106,-1,108,-1,-1,-1,-1,-1,-1,-1,-1,-1,-1,-1,-1,-1,-1,-1,-1,-1,-1,-1,-1,-1,-1,-1,-1,-1,-1,-1,-1,-1,-1,-1,-1,-1,-1,-1,-1,-1,-1,-1,-1,-1,-1,-1,-1,-1,-1,-1,-1,-1,-1,-1],"split_conditions":[-3.6246607E-1,7.9211646E-1,6.636992E-1,1.9425607E-1,1.1251286E0,4.7052085E-1,7.556695E-1,5.345677E-1,6.8831176E-1,-2.4377726E-1,9.192626E-1,6.8831176E-1,-1.3816991E-1,1.1348815E0,-1.17138915E-1,5.8040764E-2,-9.341172E-1,-6.1577666E-1,2.8199737E0,5.4283357E-1,-1.133188E0,1.2404624E0,1.7372849E0,-2.568566E-1,1.2323492E0,4.9591047E-1,-1.0134332E0,2.056603E0,1.5362763E-1,-1.3950884E-1,-1.244047E-2,-9.453092E-1,-6.9388676E-1,3.658521E-1,5.0703187E-2,-1.566152E0,-8.807122E-2,-7.453039E-1,-1.0628293E0,1.13488995E-1,-2.0541818E-1,-1.1730941E-1,6.657135E-1,2.577959E-2,1.3728852E0,2.0981866E-1,8.218422E-1,-1.2225853E-1,7.9632424E-2,-3.0463836E-1,-8.867048E-1,1.3853436E0,-3.0748877E-1,1.6014323E0,1.2518729E0,1.1885043E0,-3.915206E-2,-1.0574674E-1,1.0053714E-1,-9.751546E-2,5.622635E-2,1.8496879E-3,-9.540768E-2,8.558254E-2,-8.13983E-2,-3.303215E-2,-1.3531683E-1,1.1882889E-1,-1.21745765E-1,-8.777562E-2,6.0696762E-2,-4.94045E-2,-1.3821167E-1,-1.16452E-1,3.077299E-2,3.270354E-2,-1.2610468E-1,-8.2405224E-2,3.8776126E-2,1.5259042E-1,7.27312E-3,-1.1783053E-1,6.5050445E-2,-1.3440062E-1,-6.2028527E-2,-6.990634E-2,1.3824952E-1,-1.291237E-1,-2.6014352E-3,2.4510428E-2,-5.759539E-2,9.537567E-3,9.4819106E-2,-7.790467E-2,-1.3645895E-1,-1.0154029E-1,6.113074E-2,7.7618198E-3,7.01831E-2,1.4028773E-1,-7.1213916E-2,1.3250244E-1,-4.581402E-2,6.1466742E-2,1.3185391E-1,1.5046817E-1,5.3365906E-3,-1.173373E-1,1.1498983E-2],"split_indices":[28,23,23,13,22,28,22,10,13,4,23,13,15,13,13,23,8,28,15,22,28,22,22,18,15,23,24,10,0,0,0,11,8,24,22,8,18,4,11,0,8,1,8,4,0,0,4,23,15,8,12,28,22,13,15,8,0,28,0,0,0,0,0,0,0,0,0,0,0,0,0,0,0,0,0,0,0,0,0,0,0,0,0,0,0,0,0,0,0,0,0,0,0,0,0,0,0,0,0,0,0,0,0,0,0,0,0,0,0],"split_type":[0,0,0,0,0,0,0,0,0,0,0,0,0,0,0,0,0,0,0,0,0,0,0,0,0,0,0,0,0,0,0,0,0,0,0,0,0,0,0,0,0,0,0,0,0,0,0,0,0,0,0,0,0,0,0,0,0,0,0,0,0,0,0,0,0,0,0,0,0,0,0,0,0,0,0,0,0,0,0,0,0,0,0,0,0,0,0,0,0,0,0,0,0,0,0,0,0,0,0,0,0,0,0,0,0,0,0,0,0],"sum_hessian":[3.2476565E3,1.2712826E3,1.9763739E3,1.0501194E3,2.2116324E2,1.6810829E3,2.9529108E2,4.7781232E2,5.7230707E2,8.750803E1,1.3365521E2,7.971951E2,8.8388776E2,2.9090778E2,4.383305E0,3.6810886E2,1.09703476E2,1.81727E2,3.9058008E2,9.83763E0,7.76704E1,9.2989075E1,4.0666134E1,6.64477E2,1.3271815E2,4.4346756E2,4.4042017E2,2.8434076E2,6.567021E0,3.1542382E0,1.2290666E0,1.3162767E2,2.3648117E2,1.1025793E1,9.867768E1,1.373695E2,4.435749E1,3.8347546E2,7.1045895E0,2.7526455E0,7.0849853E0,3.0215554E0,7.464885E1,1.0927087E1,8.206199E1,2.2829565E1,1.7836569E1,2.9212082E2,3.7235614E2,1.1308165E2,1.9636515E1,4.008078E2,4.2659775E1,2.561603E2,1.8425984E2,2.828993E2,1.4414649E0,4.2389655E0,2.3280554E0,4.0794956E1,9.083271E1,5.5880207E1,1.8060097E2,1.9260607E0,9.099732E0,2.5568786E0,9.6120804E1,1.9285883E0,1.3544092E2,2.9492752E1,1.4864738E1,3.399829E0,3.8007565E2,4.128808E0,2.9757812E0,2.1816192E0,4.903366E0,1.1476902E0,1.8738654E0,7.205448E1,2.5943692E0,4.9990487E0,5.9280376E0,7.08586E1,1.1203389E1,3.9182997E0,1.8911264E1,1.2351654E1,5.4849157E0,6.671622E1,2.254046E2,2.4341676E2,1.2893939E2,3.3930393E1,7.915125E1,8.67963E0,1.0956884E1,2.6203995E2,1.3876787E2,3.9985664E1,2.6741102E0,2.5501102E2,1.1492932E0,1.2419792E2,6.0061928E1,2.8004718E2,2.8521013E0,2.999492E0,1.2394736E0],"tree_param":{"num_deleted":"0","num_feature":"37","num_nodes":"109","size_leaf_vector":"1"}},{"base_weights":[-2.1292472E-3,5.6513E-1,-5.896994E-1,3.625343E-1,1.3048935E0,-1.2812854E0,-4.0064052E-1,6.97371E-1,-2.3831311E-1,1.3894188E0,-8.7382954E-1,-1.1546422E0,-1.3660114E-1,2.9378625E-2,-9.2284375E-1,-8.6766285E-1,8.5456187E-1,5.265674E-1,-6.4454544E-1,-7.865215E-2,1.4252924E0,-1.2262574E0,8.521453E-2,-1.191672E0,-2.731216E-1,2.2533634E-1,-6.441752E-1,-1.1980312E0,1.7086644E-1,-1.0111048E0,7.382697E-1,4.6750885E-1,1.1726644E0,6.371247E-1,-1.22603E0,-3.932197E-1,-1.1368012E0,1.054491E-1,-6.0219693E-1,1.436466E0,-1.6335687E-2,4.243913E-2,-1.5013534E-1,8.4912285E-2,-8.901929E-2,-1.2262119E0,-5.184265E-1,9.1100596E-2,-8.30625E-1,7.918681E-1,-8.064224E-2,-9.5422655E-1,8.785532E-1,-1.2818907E0,-8.5420793E-1,1.2025481E0,-7.4847543E-1,-5.7034045E-2,-1.3464579E-1,1.2244654E-1,-3.890904E-2,-1.7208273E-3,6.9657326E-2,1.19501375E-1,-8.279615E-2,3.633494E-3,1.0054848E-1,-2.5904784E-2,-1.4627467E-1,-6.1910886E-2,5.511051E-2,-5.994723E-2,-1.4536296E-1,-1.1395355E-1,8.4782094E-2,1.4441906E-1,-3.9405287E-3,-7.042423E-2,-1.273854E-1,-1.1595271E-1,2.2861654E-2,-5.619932E-3,-1.0594233E-1,9.681153E-2,-6.8708286E-3,-8.723319E-2,2.2919161E-2,-5.6463595E-2,-1.1543144E-1,-6.353093E-2,1.187182E-1,-1.074157E-1,-1.3546805E-1,-1.3412125E-1,-1.44160455E-2,-6.309718E-2,1.3240512E-1,-1.1439335E-1,2.9710745E-3],"categories":[],"categories_nodes":[],"categories_segments":[],"categories_sizes":[],"default_left":[0,0,0,0,0,0,0,0,0,0,0,0,0,0,0,0,0,0,0,0,0,0,0,0,0,0,0,0,0,0,0,0,0,0,0,0,0,0,0,0,0,0,0,0,0,0,0,0,0,0,0,0,0,0,0,0,0,0,0,0,0,0,0,0,0,0,0,0,0,0,0,0,0,0,0,0,0,0,0,0,0,0,0,0,0,0,0,0,0,0,0,0,0,0,0,0,0,0,0],"id":6,"left_children":[1,3,5,7,9,11,13,15,17,19,21,23,-1,25,27,29,31,33,35,37,39,41,43,45,47,49,51,53,55,57,59,61,63,65,67,69,71,-1,73,75,-1,-1,-1,-1,-1,77,79,-1,81,83,85,87,89,91,93,95,97,-1,-1,-1,-1,-1,-1,-1,-1,-1,-1,-1,-1,-1,-1,-1,-1,-1,-1,-1,-1,-1,-1,-1,-1,-1,-1,-1,-1,-1,-1,-1,-1,-1,-1,-1,-1,-1,-1,-1,-1,-1,-1],"loss_changes":[1.0459279E3,2.3863745E2,2.0087201E2,2.52658E2,6.438452E1,1.7154541E0,2.7231277E2,1.990535E2,1.4007164E2,1.7645935E1,4.7376328E0,4.0771484E0,0E0,8.7955925E1,1.6510205E2,1.7823593E1,8.9549866E1,3.1035316E1,3.5800285E1,5.7876296E0,6.088623E0,5.248705E0,4.068834E0,2.2904358E0,5.3857975E0,8.966172E1,7.1735176E1,1.1310425E1,1.0610437E2,9.154358E0,4.1719074E0,3.6999725E1,1.8982422E1,3.25846E1,1.6398258E0,4.2251377E1,1.5740074E1,0E0,6.207543E0,3.8515625E0,0E0,0E0,0E0,0E0,0E0,2.037323E0,4.371891E0,0E0,7.7796507E-1,2.7658562E1,8.271615E1,8.942429E0,1.2894991E1,3.58844E0,3.0450424E1,1.264048E1,1.8361557E1,0E0,0E0,0E0,0E0,0E0,0E0,0E0,0E0,0E0,0E0,0E0,0E0,0E0,0E0,0E0,0E0,0E0,0E0,0E0,0E0,0E0,0E0,0E0,0E0,0E0,0E0,0E0,0E0,0E0,0E0,0E0,0E0,0E0,0E0,0E0,0E0,0E0,0E0,0E0,0E0,0E0,0E0],"parents":[2147483647,0,0,1,1,2,2,3,3,4,4,5,5,6,6,7,7,8,8,9,9,10,10,11,11,13,13,14,14,15,15,16,16,17,17,18,18,19,19,20,20,21,21,22,22,23,23,24,24,25,25,26,26,27,27,28,28,29,29,30,30,31,31,32,32,33,33,34,34,35,35,36,36,38,38,39,39,45,45,46,46,48,48,49,49,50,50,51,51,52,52,53,53,54,54,55,55,56,56],"right_children":[2,4,6,8,10,12,14,16,18,20,22,24,-1,26,28,30,32,34,36,38,40,42,44,46,48,50,52,54,56,58,60,62,64,66,68,70,72,-1,74,76,-1,-1,-1,-1,-1,78,80,-1,82,84,86,88,90,92,94,96,98,-1,-1,-1,-1,-1,-1,-1,-1,-1,-1,-1,-1,-1,-1,-1,-1,-1,-1,-1,-1,-1,-1,-1,-1,-1,-1,-1,-1,-1,-1,-1,-1,-1,-1,-1,-1,-1,-1,-1,-1,-1,-1],"split_conditions":[8.7124385E-2,5.724457E-1,-1.0889448E0,3.0777715E-2,8.423872E-1,1.5236673E-1,3.038498E-1,-1.5084026E0,-1.0134332E0,-4.5619628E-1,3.500961E-1,7.293196E-2,-1.3660114E-1,6.8831176E-1,7.9211646E-1,-1.3892739E0,-1.642115E-1,7.389107E-1,2.1514928E-1,-1.8483362E-1,1.1095254E0,-2.1005735E-1,8.7300134E-1,1.7276958E0,3.291418E-1,-5.137656E-1,8.5393333E-1,6.6501194E-1,1.1251286E0,-4.2642874E-1,-4.900604E-1,-4.513139E-1,1.570299E0,-4.2314145E-1,-3.4003578E-2,6.188051E-1,4.883543E-1,1.054491E-1,6.772401E-1,2.15324E0,-1.6335687E-2,4.243913E-2,-1.5013534E-1,8.4912285E-2,-8.901929E-2,-1.6416578E0,-1.5084026E0,9.1100596E-2,-5.137656E-1,-5.9465375E-2,-7.1870494E-1,1.0477281E0,9.8959155E-2,-3.5462093E-1,6.0455835E-1,-2.0390004E-1,9.192626E-1,-5.7034045E-2,-1.3464579E-1,1.2244654E-1,-3.890904E-2,-1.7208273E-3,6.9657326E-2,1.19501375E-1,-8.279615E-2,3.633494E-3,1.0054848E-1,-2.5904784E-2,-1.4627467E-1,-6.1910886E-2,5.511051E-2,-5.994723E-2,-1.4536296E-1,-1.1395355E-1,8.4782094E-2,1.4441906E-1,-3.9405287E-3,-7.042423E-2,-1.273854E-1,-1.1595271E-1,2.2861654E-2,-5.619932E-3,-1.0594233E-1,9.681153E-2,-6.8708286E-3,-8.723319E-2,2.2919161E-2,-5.6463595E-2,-1.1543144E-1,-6.353093E-2,1.187182E-1,-1.074157E-1,-1.3546805E-1,-1.3412125E-1,-1.44160455E-2,-6.309718E-2,1.3240512E-1,-1.1439335E-1,2.9710745E-3],"split_indices":[22,23,11,9,25,13,9,9,24,14,14,13,0,13,23,11,15,13,13,9,13,9,9,1,24,23,23,14,22,13,14,25,13,14,14,14,9,0,23,1,0,0,0,0,0,1,9,0,23,9,14,13,4,13,23,14,23,0,0,0,0,0,0,0,0,0,0,0,0,0,0,0,0,0,0,0,0,0,0,0,0,0,0,0,0,0,0,0,0,0,0,0,0,0,0,0,0,0,0],"split_type":[0,0,0,0,0,0,0,0,0,0,0,0,0,0,0,0,0,0,0,0,0,0,0,0,0,0,0,0,0,0,0,0,0,0,0,0,0,0,0,0,0,0,0,0,0,0,0,0,0,0,0,0,0,0,0,0,0,0,0,0,0,0,0,0,0,0,0,0,0,0,0,0,0,0,0,0,0,0,0,0,0,0,0,0,0,0,0,0,0,0,0,0,0,0,0,0,0,0,0],"sum_hessian":[3.1360474E3,1.5955345E3,1.5405128E3,1.25379E3,3.4174454E2,3.2936697E2,1.2111459E3,8.0512213E2,4.486679E2,3.293744E2,1.2370168E1,1.3836125E2,1.9100574E2,6.646106E2,5.465352E2,7.301451E1,7.321076E2,1.5544452E2,2.932234E2,7.76163E0,3.2161276E2,8.918469E0,3.4516985E0,1.3233694E2,6.024306E0,5.1546094E2,1.4914967E2,4.366629E2,1.0987234E2,6.742479E1,5.589721E0,3.3151672E2,4.0059088E2,1.4687302E2,8.571513E0,1.954411E2,9.778228E1,2.0719743E0,5.689656E0,3.1952417E2,2.0885944E0,1.1445651E0,7.7739043E0,2.0658107E0,1.3858879E0,1.2495635E2,7.380587E0,1.668016E0,4.35629E0,1.803235E2,3.3513742E2,1.2428277E2,2.4866907E1,3.486154E2,8.8047516E1,5.1679047E1,5.8193295E1,3.0429417E1,3.6995373E1,3.9072235E0,1.6824977E0,1.0654596E2,2.2497078E2,3.9661288E2,3.9779873E0,5.6345104E1,9.052791E1,2.1805985E0,6.390915E0,1.5807802E2,3.736309E1,3.7459717E1,6.0322567E1,4.3578415E0,1.331814E0,3.1794928E2,1.5748693E0,1.1946822E1,1.1300953E2,3.7468255E0,3.6337616E0,1.3772691E0,2.9790206E0,1.4966345E2,3.066005E1,9.384676E1,2.4129065E2,4.3637672E1,8.0645096E1,3.9769528E0,2.0889956E1,9.4903244E1,2.5371214E2,5.161576E1,3.6431755E1,2.900062E0,4.8778984E1,3.83587E1,1.9834593E1],"tree_param":{"num_deleted":"0","num_feature":"37","num_nodes":"99","size_leaf_vector":"1"}},{"base_weights":[-1.0549318E-2,5.3225094E-1,-5.385445E-1,3.0167941E-2,7.9093945E-1,-1.1847677E0,-3.5167482E-1,5.981263E-1,-2.6502657E-1,2.1941718E-1,9.834068E-1,-1.2595476E0,-7.6664144E-1,-9.098412E-1,-8.0167525E-2,2.434969E-1,1.0351346E0,-3.9713824E-1,1.1238886E0,-1.5523645E-1,5.631812E-1,1.0392952E0,-7.3271173E-1,-6.34874E-1,-1.2775917E0,-1.0610923E0,4.923618E-2,-4.8835793E-1,-1.111611E0,-2.9454613E-1,7.5289017E-1,-5.606896E-1,4.2938226E-1,1.1319888E0,-1.4530158E-1,-5.257869E-1,7.1520674E-1,1.3337934E0,-1.1144012E-1,-3.4312427E-1,1.1681727E0,7.03445E-1,-7.5704175E-1,-2.8957543E-1,1.0785513E0,-1.012498E0,3.0015883E-1,2.1984719E-1,-9.2123604E-1,-7.826382E-1,-1.2951112E0,7.678933E-3,-1.1117795E0,8.794457E-1,-9.1349137E-1,-3.0501172E-1,-1.3500081E-1,-8.0272764E-1,-1.1891432E0,-5.894916E-2,-1.0510969E0,1.1905656E0,-2.407685E-1,-1.1006669E-1,-8.888796E-3,5.0880987E-2,-7.352673E-2,-4.1382294E-2,1.1638898E-1,6.480529E-2,-9.575119E-2,-3.798094E-2,-1.1867594E-1,-9.207378E-2,9.1292664E-2,1.4107148E-1,-1.5996393E-2,6.5333704E-3,-6.574979E-2,-5.2533587E-3,1.2777978E-1,1.1551269E-2,8.2126476E-2,8.766961E-3,-1.2070016E-1,-7.026246E-2,5.1469058E-2,6.894641E-2,1.1736635E-1,-1.2027092E-1,1.630476E-2,-8.697192E-2,8.040161E-2,-3.550633E-2,7.234936E-2,-1.06291726E-1,-2.8744956E-2,-0E0,-1.06359266E-1,-3.7940588E-2,-1.3007629E-1,-1.1653147E-1,-1.20978085E-2,-1.8894888E-2,1.6352417E-1,2.7421374E-2,-1.2337519E-1,-8.2737E-3,-1.20363094E-1,-9.396111E-2,1.2048417E-1,-2.6011954E-3,-1.1981284E-1,5.7081144E-2,-3.2846604E-2,-1.13055326E-1,-4.589336E-2,-5.0001632E-2,1.2555692E-1,-9.47701E-2,5.214673E-2],"categories":[],"categories_nodes":[],"categories_segments":[],"categories_sizes":[],"default_left":[0,0,0,0,0,0,0,0,0,0,0,0,0,0,0,0,0,0,0,0,0,0,0,0,0,0,0,0,0,0,0,0,0,0,0,0,0,0,0,0,0,0,0,0,0,0,0,0,0,0,0,0,0,0,0,0,0,0,0,0,0,0,0,0,0,0,0,0,0,0,0,0,0,0,0,0,0,0,0,0,0,0,0,0,0,0,0,0,0,0,0,0,0,0,0,0,0,0,0,0,0,0,0,0,0,0,0,0,0,0,0,0,0,0,0,0,0,0,0,0,0],"id":7,"left_children":[1,3,5,7,9,11,13,15,17,19,21,23,25,27,29,31,33,35,37,39,41,43,45,47,49,51,53,55,57,59,61,63,65,67,69,71,73,75,-1,77,79,81,83,85,87,89,91,93,95,97,99,-1,101,103,105,107,-1,109,111,113,115,117,119,-1,-1,-1,-1,-1,-1,-1,-1,-1,-1,-1,-1,-1,-1,-1,-1,-1,-1,-1,-1,-1,-1,-1,-1,-1,-1,-1,-1,-1,-1,-1,-1,-1,-1,-1,-1,-1,-1,-1,-1,-1,-1,-1,-1,-1,-1,-1,-1,-1,-1,-1,-1,-1,-1,-1,-1,-1,-1],"loss_changes":[8.7974896E2,1.9647461E2,1.8734698E2,8.667323E1,1.095202E2,9.728729E0,1.829895E2,2.7024654E1,6.2758858E1,3.2714565E1,7.240753E1,2.3101807E0,1.3518101E1,3.2914276E1,1.4560506E2,1.5034267E1,9.27018E0,4.489936E1,1.54743E1,3.0582441E1,2.5026772E1,3.81391E1,7.3339205E0,2.8166885E0,1.2454834E0,2.554325E0,1.3283407E1,1.9946968E1,5.225708E0,1.1541052E2,7.294572E1,4.6056714E0,7.855571E0,4.1564636E0,5.021418E0,2.6375465E1,1.1387917E1,3.5304298E0,0E0,1.3895818E1,2.2360897E0,8.136501E0,5.204226E0,7.5154076E0,2.5025024E1,4.6049595E0,4.127864E0,1.2573929E0,2.837038E-1,2.7594867E0,7.5146484E-1,0E0,1.8209457E0,7.6820693E0,3.3505468E0,2.1445595E1,0E0,1.671001E1,2.0473633E0,8.428902E1,6.5598907E0,1.34587555E1,2.8439667E1,0E0,0E0,0E0,0E0,0E0,0E0,0E0,0E0,0E0,0E0,0E0,0E0,0E0,0E0,0E0,0E0,0E0,0E0,0E0,0E0,0E0,0E0,0E0,0E0,0E0,0E0,0E0,0E0,0E0,0E0,0E0,0E0,0E0,0E0,0E0,0E0,0E0,0E0,0E0,0E0,0E0,0E0,0E0,0E0,0E0,0E0,0E0,0E0,0E0,0E0,0E0,0E0,0E0,0E0,0E0,0E0,0E0,0E0],"parents":[2147483647,0,0,1,1,2,2,3,3,4,4,5,5,6,6,7,7,8,8,9,9,10,10,11,11,12,12,13,13,14,14,15,15,16,16,17,17,18,18,19,19,20,20,21,21,22,22,23,23,24,24,25,25,26,26,27,27,28,28,29,29,30,30,31,31,32,32,33,33,34,34,35,35,36,36,37,37,39,39,40,40,41,41,42,42,43,43,44,44,45,45,46,46,47,47,48,48,49,49,50,50,52,52,53,53,54,54,55,55,57,57,58,58,59,59,60,60,61,61,62,62],"right_children":[2,4,6,8,10,12,14,16,18,20,22,24,26,28,30,32,34,36,38,40,42,44,46,48,50,52,54,56,58,60,62,64,66,68,70,72,74,76,-1,78,80,82,84,86,88,90,92,94,96,98,100,-1,102,104,106,108,-1,110,112,114,116,118,120,-1,-1,-1,-1,-1,-1,-1,-1,-1,-1,-1,-1,-1,-1,-1,-1,-1,-1,-1,-1,-1,-1,-1,-1,-1,-1,-1,-1,-1,-1,-1,-1,-1,-1,-1,-1,-1,-1,-1,-1,-1,-1,-1,-1,-1,-1,-1,-1,-1,-1,-1,-1,-1,-1,-1,-1,-1,-1],"split_conditions":[-2.632762E-2,-3.7292653E-1,-1.0628293E0,-1.0134332E0,-7.877681E-1,1.3680985E0,-4.246575E-1,-4.45063E-2,6.607556E-1,-3.9897028E-1,1.1095254E0,-1.9652289E0,4.3832842E-2,3.9288232E-1,7.9211646E-1,-1.1940267E0,7.4911094E-1,1.3843558E0,1.1243305E0,5.724457E-1,5.578288E-1,-1.3892739E0,1.7557635E0,5.1961976E-1,-2.0299103E0,-1.3990444E0,7.5709605E-1,-2.5830954E-1,3.658521E-1,6.8831176E-1,1.4178541E0,-5.0113887E-1,1.0409567E0,-2.0727546E0,-3.710853E-1,6.8831176E-1,-1.2891642E0,8.6229765E-1,-1.1144012E-1,-7.931159E-1,-5.516467E-1,-2.5148177E-1,-3.537033E-1,6.823369E-1,-6.84227E-1,1.1122804E0,-8.9500356E-1,-5.892461E-1,2.6252503E0,-1.5927453E-1,-2.5609443E0,7.678933E-3,1.98119E0,-6.2285894E-1,-8.4126884E-1,9.0683013E-1,-1.3500081E-1,7.5691515E-1,-1.7994738E0,-5.137656E-1,7.29441E-1,-5.911412E-1,6.233667E-1,-1.1006669E-1,-8.888796E-3,5.0880987E-2,-7.352673E-2,-4.1382294E-2,1.1638898E-1,6.480529E-2,-9.575119E-2,-3.798094E-2,-1.1867594E-1,-9.207378E-2,9.1292664E-2,1.4107148E-1,-1.5996393E-2,6.5333704E-3,-6.574979E-2,-5.2533587E-3,1.2777978E-1,1.1551269E-2,8.2126476E-2,8.766961E-3,-1.2070016E-1,-7.026246E-2,5.1469058E-2,6.894641E-2,1.1736635E-1,-1.2027092E-1,1.630476E-2,-8.697192E-2,8.040161E-2,-3.550633E-2,7.234936E-2,-1.06291726E-1,-2.8744956E-2,-0E0,-1.06359266E-1,-3.7940588E-2,-1.3007629E-1,-1.1653147E-1,-1.20978085E-2,-1.8894888E-2,1.6352417E-1,2.7421374E-2,-1.2337519E-1,-8.2737E-3,-1.20363094E-1,-9.396111E-2,1.2048417E-1,-2.6011954E-3,-1.1981284E-1,5.7081144E-2,-3.2846604E-2,-1.13055326E-1,-4.589336E-2,-5.0001632E-2,1.2555692E-1,-9.47701E-2,5.214673E-2],"split_indices":[24,18,11,24,15,12,18,15,23,25,13,25,18,23,23,6,10,15,25,23,13,11,15,24,1,8,24,10,24,13,24,12,4,6,11,13,11,13,0,24,1,18,8,12,0,0,0,1,18,5,6,0,1,16,13,13,0,23,16,23,23,3,3,0,0,0,0,0,0,0,0,0,0,0,0,0,0,0,0,0,0,0,0,0,0,0,0,0,0,0,0,0,0,0,0,0,0,0,0,0,0,0,0,0,0,0,0,0,0,0,0,0,0,0,0,0,0,0,0,0,0],"split_type":[0,0,0,0,0,0,0,0,0,0,0,0,0,0,0,0,0,0,0,0,0,0,0,0,0,0,0,0,0,0,0,0,0,0,0,0,0,0,0,0,0,0,0,0,0,0,0,0,0,0,0,0,0,0,0,0,0,0,0,0,0,0,0,0,0,0,0,0,0,0,0,0,0,0,0,0,0,0,0,0,0,0,0,0,0,0,0,0,0,0,0,0,0,0,0,0,0,0,0,0,0,0,0,0,0,0,0,0,0,0,0,0,0,0,0,0,0,0,0,0,0],"sum_hessian":[3.067647E3,1.5125192E3,1.5551279E3,5.148198E2,9.9769934E2,3.4751028E2,1.2076176E3,1.7583102E2,3.389888E2,2.5201442E2,7.4568494E2,2.928788E2,5.4631474E1,3.9429797E2,8.1331964E2,9.8050064E1,7.778096E1,3.1026306E2,2.872573E1,1.2071254E2,1.3130188E2,7.2260474E2,2.3080223E1,9.393945E0,2.8348486E2,4.001283E1,1.4618646E1,1.2891643E2,2.6538156E2,6.474672E2,1.6585239E2,1.7929274E1,8.012079E1,7.199922E1,5.7817397E0,2.7865262E2,3.1610441E1,2.6673128E1,2.0526037E0,1.0642009E2,1.4292445E1,1.1918255E2,1.2119331E1,2.0477875E1,7.0212683E2,1.825249E1,4.8277335E0,2.3281248E0,7.0658197E0,1.1447741E1,2.720371E2,1.6002744E0,3.8412556E1,7.951788E0,6.666858E0,1.07509964E2,2.1406464E1,5.5784126E1,2.0959743E2,4.946414E2,1.5282584E2,1.150701E2,5.0782288E1,7.640202E0,1.0289071E1,7.561306E1,4.5077295E0,1.1503558E0,7.084887E1,2.9647799E0,2.8169596E0,2.2965799E2,4.8994637E1,2.959644E0,2.8650797E1,2.5483393E1,1.1897337E0,4.649037E1,5.992972E1,1.1455066E0,1.3146939E1,2.036889E1,9.881365E1,4.414636E0,7.7046957E0,1.3695139E1,6.782736E0,1.3974701E2,5.623798E2,1.5763766E1,2.4887238E0,1.1749926E0,3.652741E0,1.1321932E0,1.1959316E0,5.092527E0,1.9732932E0,3.2683384E0,8.179401E0,2.1951795E0,2.6984195E2,3.6180576E1,2.2319787E0,3.550493E0,4.4012947E0,1.3801233E0,5.286735E0,8.715533E1,2.035464E1,5.2767986E1,3.0161378E0,1.721908E0,2.0787552E2,1.4779967E2,3.4684174E2,1.3379517E2,1.9030663E1,3.955917E0,1.1111418E2,2.628876E1,2.4493528E1],"tree_param":{"num_deleted":"0","num_feature":"37","num_nodes":"121","size_leaf_vector":"1"}},{"base_weights":[-1.3753387E-2,4.0069082E-1,-6.161896E-1,2.2470306E-1,1.2581061E0,-7.118005E-1,2.539212E-1,4.412571E-1,-5.839976E-1,1.3100066E0,-7.4580973E-1,-4.4039735E-1,-1.0576147E0,1.1024257E0,-5.92504E-1,-9.1562766E-1,5.562004E-1,1.1113268E-1,-9.974226E-1,-2.550336E-1,1.3402908E0,3.861613E-2,-1.1516889E-1,-1.160365E0,-1.7575176E-1,-1.1263256E0,-3.755692E-1,-6.563439E-1,1.2947054E0,1.18460795E-2,-1.1566395E0,-5.159552E-1,-1.182945E0,8.687437E-1,2.0579489E-1,-5.1368386E-1,8.7405634E-1,-1.9332977E-1,-1.1432222E0,9.699326E-2,-8.793111E-1,1.359083E0,9.78305E-2,-8.75052E-1,-1.2657365E0,3.5857923E-2,-9.1286063E-1,-9.740973E-1,-1.2435404E0,1.1286145E0,-1.0939068E0,-9.865459E-1,3.3868354E-2,1.3667948E0,-6.509363E-2,8.7547594E-1,-5.4060775E-1,-1.2033355E0,4.0899655E-3,-5.9297748E-2,8.4860325E-2,3.631245E-3,-1.2115957E-1,3.214725E-2,1.0076815E-1,7.762603E-2,-1.0077353E-2,-1.4111E-2,-1.0689535E-1,1.1279873E-1,-1.1588013E-1,-8.444407E-2,1.0356575E-1,-9.479975E-2,-1.3507749E-1,-1.2669538E-1,1.0721551E-2,1.3733949E-1,7.147481E-2,9.767642E-2,-1.0199803E-1,3.5453673E-2,-9.6411794E-2,-2.5431214E-2,-1.2730497E-1,5.3068113E-2,-3.00557E-2,-3.0752376E-3,-1.0209578E-1,-1.0701092E-1,4.309717E-2,3.63058E-2,-1.2534288E-1,-8.084376E-5,1.3104852E-1,3.8416773E-2,-1.2138212E-1,-2.2857852E-2,-1.1100852E-1,1.4167131E-1,1.0225208E-2,-8.3917595E-2,1.1643548E-1,-1.1233684E-1,-1.3999144E-2,-1.23070024E-1,-1.4857314E-2],"categories":[],"categories_nodes":[],"categories_segments":[],"categories_sizes":[],"default_left":[0,0,0,0,0,0,0,0,0,0,0,0,0,0,0,0,0,0,0,0,0,0,0,0,0,0,0,0,0,0,0,0,0,0,0,0,0,0,0,0,0,0,0,0,0,0,0,0,0,0,0,0,0,0,0,0,0,0,0,0,0,0,0,0,0,0,0,0,0,0,0,0,0,0,0,0,0,0,0,0,0,0,0,0,0,0,0,0,0,0,0,0,0,0,0,0,0,0,0,0,0,0,0,0,0,0,0],"id":8,"left_children":[1,3,5,7,9,11,13,15,17,19,21,23,25,27,29,31,33,35,37,39,41,-1,-1,43,45,47,49,51,53,55,57,59,61,63,65,67,69,71,73,-1,75,77,79,81,83,85,87,89,91,93,95,97,-1,99,-1,101,103,105,-1,-1,-1,-1,-1,-1,-1,-1,-1,-1,-1,-1,-1,-1,-1,-1,-1,-1,-1,-1,-1,-1,-1,-1,-1,-1,-1,-1,-1,-1,-1,-1,-1,-1,-1,-1,-1,-1,-1,-1,-1,-1,-1,-1,-1,-1,-1,-1,-1],"loss_changes":[7.446499E2,2.661678E2,1.0135483E2,2.571937E2,3.2293854E1,1.0221356E2,8.7594E1,1.8107762E2,8.9357124E1,1.43559265E1,4.2779956E0,1.1698077E2,2.1963196E1,2.1483505E1,2.097889E1,8.914711E0,1.16703766E2,5.6023865E1,2.2474594E1,5.6974196E0,6.4467163E0,0E0,0E0,3.64534E0,7.054684E1,6.351013E0,5.0551662E1,2.5696669E0,8.706352E0,1.5025681E1,1.9396362E0,4.5021477E0,2.0287247E0,4.2440186E1,8.847675E1,1.3094662E1,2.8611156E1,2.5820148E1,5.156296E0,0E0,2.080876E0,1.4248047E0,6.3451357E0,5.6656075E0,3.9752197E-1,5.872179E1,9.480011E0,2.6799408E1,4.3962708E0,3.254284E0,6.122719E0,1.0789871E-1,0E0,3.0878525E0,0E0,7.1141195E0,4.177044E0,5.638695E-1,0E0,0E0,0E0,0E0,0E0,0E0,0E0,0E0,0E0,0E0,0E0,0E0,0E0,0E0,0E0,0E0,0E0,0E0,0E0,0E0,0E0,0E0,0E0,0E0,0E0,0E0,0E0,0E0,0E0,0E0,0E0,0E0,0E0,0E0,0E0,0E0,0E0,0E0,0E0,0E0,0E0,0E0,0E0,0E0,0E0,0E0,0E0,0E0,0E0],"parents":[2147483647,0,0,1,1,2,2,3,3,4,4,5,5,6,6,7,7,8,8,9,9,10,10,11,11,12,12,13,13,14,14,15,15,16,16,17,17,18,18,19,19,20,20,23,23,24,24,25,25,26,26,27,27,28,28,29,29,30,30,31,31,32,32,33,33,34,34,35,35,36,36,37,37,38,38,40,40,41,41,42,42,43,43,44,44,45,45,46,46,47,47,48,48,49,49,50,50,51,51,53,53,55,55,56,56,57,57],"right_children":[2,4,6,8,10,12,14,16,18,20,22,24,26,28,30,32,34,36,38,40,42,-1,-1,44,46,48,50,52,54,56,58,60,62,64,66,68,70,72,74,-1,76,78,80,82,84,86,88,90,92,94,96,98,-1,100,-1,102,104,106,-1,-1,-1,-1,-1,-1,-1,-1,-1,-1,-1,-1,-1,-1,-1,-1,-1,-1,-1,-1,-1,-1,-1,-1,-1,-1,-1,-1,-1,-1,-1,-1,-1,-1,-1,-1,-1,-1,-1,-1,-1,-1,-1,-1,-1,-1,-1,-1,-1],"split_conditions":[3.0693704E-1,6.3426256E-1,8.5393333E-1,4.883543E-1,1.1243305E0,1.7725098E-1,1.3722725E0,-1.5084026E0,-7.894125E-1,-6.151267E-1,-2.1005735E-1,-1.5084026E0,7.9211646E-1,-1.6701463E-1,-7.421467E-1,-4.82211E-1,-3.1261212E-1,4.539276E-1,-9.606947E-1,-9.264666E-1,1.034542E0,3.861613E-2,-1.1516889E-1,-3.2078844E-1,7.048533E-1,8.018158E-1,8.656275E-1,6.498943E-1,2.1749117E0,1.618606E0,1.4564023E0,-5.3934646E-1,-2.1647193E0,-5.3105474E-1,-9.508798E-1,4.2428315E-1,4.3380764E-1,4.9591047E-1,1.4017951E-1,9.699326E-2,-6.0548283E-2,1.6109223E0,-7.763819E-2,-2.0299103E0,-2.1647193E0,1.8167457E-1,-9.223124E-1,7.29441E-1,-2.1035328E0,2.9304713E-1,8.3847916E-1,1.025594E0,3.3868354E-2,5.3883187E-2,-6.509363E-2,-6.0548283E-2,-4.784526E-1,2.1793983E0,4.0899655E-3,-5.9297748E-2,8.4860325E-2,3.631245E-3,-1.2115957E-1,3.214725E-2,1.0076815E-1,7.762603E-2,-1.0077353E-2,-1.4111E-2,-1.0689535E-1,1.1279873E-1,-1.1588013E-1,-8.444407E-2,1.0356575E-1,-9.479975E-2,-1.3507749E-1,-1.2669538E-1,1.0721551E-2,1.3733949E-1,7.147481E-2,9.767642E-2,-1.0199803E-1,3.5453673E-2,-9.6411794E-2,-2.5431214E-2,-1.2730497E-1,5.3068113E-2,-3.00557E-2,-3.0752376E-3,-1.0209578E-1,-1.0701092E-1,4.309717E-2,3.63058E-2,-1.2534288E-1,-8.084376E-5,1.3104852E-1,3.8416773E-2,-1.2138212E-1,-2.2857852E-2,-1.1100852E-1,1.4167131E-1,1.0225208E-2,-8.3917595E-2,1.1643548E-1,-1.1233684E-1,-1.3999144E-2,-1.23070024E-1,-1.4857314E-2],"split_indices":[22,23,23,9,25,9,22,9,22,14,9,9,23,14,7,13,9,14,25,25,7,0,0,13,13,22,22,3,13,22,14,13,6,25,22,1,7,23,13,0,6,9,22,1,6,23,9,23,0,14,23,22,0,7,0,6,25,6,0,0,0,0,0,0,0,0,0,0,0,0,0,0,0,0,0,0,0,0,0,0,0,0,0,0,0,0,0,0,0,0,0,0,0,0,0,0,0,0,0,0,0,0,0,0,0,0,0],"split_type":[0,0,0,0,0,0,0,0,0,0,0,0,0,0,0,0,0,0,0,0,0,0,0,0,0,0,0,0,0,0,0,0,0,0,0,0,0,0,0,0,0,0,0,0,0,0,0,0,0,0,0,0,0,0,0,0,0,0,0,0,0,0,0,0,0,0,0,0,0,0,0,0,0,0,0,0,0,0,0,0,0,0,0,0,0,0,0,0,0,0,0,0,0,0,0,0,0,0,0,0,0,0,0,0,0,0,0],"sum_hessian":[2.9803872E3,1.7657877E3,1.2145996E3,1.4662192E3,2.9956842E2,1.0946161E3,1.199835E2,1.1569807E3,3.0923853E2,2.9239178E2,7.1766424E0,6.147268E2,4.7988934E2,5.982611E1,6.0157383E1,8.974317E1,1.0672375E3,1.1551E2,1.9372852E2,5.3469195E0,2.8704486E2,1.8419011E0,5.3347416E0,1.6421576E2,4.5051102E2,4.352438E2,4.464553E1,5.6068707E0,5.4219242E1,2.9430576E1,3.0726807E1,3.7291695E1,5.245148E1,5.6316205E2,5.0407556E2,6.3610287E1,5.1899715E1,3.0197826E1,1.635307E2,1.5640483E0,3.7828712E0,2.8259625E2,4.448629E0,4.7056057E1,1.17159706E2,3.5065924E2,9.985179E1,1.9376378E2,2.4148003E2,1.4200217E1,3.0445312E1,4.2916884E0,1.3151826E0,5.2618538E1,1.6007029E0,1.1324198E1,1.8106377E1,2.9649343E1,1.0774622E0,3.5903835E1,1.387857E0,1.1179596E0,5.133352E1,1.1484093E2,4.4832108E2,1.7577881E2,3.2829675E2,3.8926006E1,2.468428E1,4.657606E1,5.323655E0,1.9997517E1,1.0200311E1,8.738518E1,7.6145515E1,2.5844529E0,1.1984185E0,2.7519696E2,7.3992906E0,2.6111364E0,1.8374923E0,2.9011576E0,4.41549E1,1.1960374E0,1.1596367E2,1.418038E2,2.0885542E2,1.1141682E1,8.8710106E1,1.8166005E2,1.2103732E1,1.1968371E0,2.4028319E2,2.0313256E0,1.2168892E1,2.0566964E0,2.8388617E1,1.1143532E0,3.1773353E0,5.042844E1,2.1901E0,1.3082023E0,1.0015996E1,6.5396676E0,1.15667095E1,2.8644577E1,1.0047667E0],"tree_param":{"num_deleted":"0","num_feature":"37","num_nodes":"107","size_leaf_vector":"1"}},{"base_weights":[-6.8885153E-3,5.2134275E-1,-4.379386E-1,3.6350328E-1,1.1737322E0,-7.204845E-1,-6.0000896E-2,6.571915E-1,-1.5257846E-1,-4.170077E-1,1.2340714E0,-5.537055E-1,-1.0995753E0,-9.967485E-1,1.1402212E-1,-6.147564E-1,7.867895E-1,3.253436E-2,-1.0362003E0,-8.793992E-1,8.823957E-2,1.2768269E0,-6.094472E-1,-1.1447248E0,-3.3611944E-1,-1.22685455E-1,-5.483324E-1,-3.5576344E-1,-1.0775496E0,3.637658E-1,-6.4451325E-1,-8.681518E-1,2.8219616E-1,4.884036E-1,1.0956022E0,-2.353039E-1,7.5586444E-1,-1.1346773E0,3.6059836E-1,4.459196E-2,-1.2736828E0,1.281916E0,8.229415E-4,4.770277E-2,-1.0825638E-1,-1.1778626E0,-5.665748E-1,6.421208E-2,-5.6946707E-1,-1.0555598E0,4.5969933E-1,-7.0497894E-1,1.01609245E-1,-5.511649E-1,-1.143679E0,1.7373325E-1,8.989194E-1,-1.0269568E0,1.7473935E-1,8.447447E-3,-9.667328E-2,9.327119E-2,-6.7483336E-2,8.263787E-2,1.4869477E-2,1.1657441E-1,3.9462946E-2,-6.258688E-2,2.6235778E-2,1.731257E-2,1.21206835E-1,-1.18128814E-1,2.0839239E-2,-4.8115548E-2,7.6373264E-2,-0E0,-1.5525587E-1,1.2853561E-1,3.0695815E-2,-5.8267433E-2,-1.2082883E-1,5.562563E-4,-1.07557476E-1,4.4075336E-2,-5.970895E-2,-7.243236E-2,4.0274702E-2,-1.18693426E-1,-3.5305653E-2,1.0393675E-1,-3.5362322E-2,1.4159177E-2,-9.2783935E-2,2.8997837E-2,-8.021107E-2,-1.1799166E-1,-4.4155315E-2,6.698714E-2,-2.827226E-2,-6.4281E-2,1.16573595E-1,-6.390807E-2,-1.2336277E-1,1.1496643E-1,-5.696478E-2],"categories":[],"categories_nodes":[],"categories_segments":[],"categories_sizes":[],"default_left":[0,0,0,0,0,0,0,0,0,0,0,0,0,0,0,0,0,0,0,0,0,0,0,0,0,0,0,0,0,0,0,0,0,0,0,0,0,0,0,0,0,0,0,0,0,0,0,0,0,0,0,0,0,0,0,0,0,0,0,0,0,0,0,0,0,0,0,0,0,0,0,0,0,0,0,0,0,0,0,0,0,0,0,0,0,0,0,0,0,0,0,0,0,0,0,0,0,0,0,0,0,0,0,0,0],"id":9,"left_children":[1,3,5,7,9,11,13,15,17,19,21,23,25,27,29,31,33,35,37,39,-1,41,43,45,47,-1,49,51,53,55,57,59,61,63,65,67,69,71,73,-1,75,77,-1,-1,-1,79,81,83,85,87,89,91,-1,93,95,97,99,101,103,-1,-1,-1,-1,-1,-1,-1,-1,-1,-1,-1,-1,-1,-1,-1,-1,-1,-1,-1,-1,-1,-1,-1,-1,-1,-1,-1,-1,-1,-1,-1,-1,-1,-1,-1,-1,-1,-1,-1,-1,-1,-1,-1,-1,-1,-1],"loss_changes":[6.572866E2,1.3298062E2,1.6963342E2,1.5868193E2,2.4794312E1,5.67222E1,1.112629E2,1.1043616E2,6.2296013E1,6.7239857E0,2.0014404E1,8.096585E1,1.8560028E1,5.0114365E0,1.09202385E2,1.443111E1,5.5124084E1,6.1272984E1,9.557968E0,4.757669E0,0E0,1.3974915E0,3.73132E0,2.4150848E0,4.3502815E1,0E0,2.8078623E1,7.20146E0,2.4836655E0,4.3830814E1,4.4998455E1,4.7525864E0,9.595072E0,3.5377182E1,1.3972382E1,4.5022614E1,2.2376827E1,4.219345E0,2.1043954E0,0E0,2.3319225E0,2.4121094E-1,0E0,0E0,0E0,2.0086975E0,3.405446E0,4.3047745E1,4.4567314E1,2.7672882E0,9.23203E0,2.3778563E0,0E0,2.949078E0,1.4210587E0,7.300131E1,4.7384903E1,6.8453827E0,3.4248344E1,0E0,0E0,0E0,0E0,0E0,0E0,0E0,0E0,0E0,0E0,0E0,0E0,0E0,0E0,0E0,0E0,0E0,0E0,0E0,0E0,0E0,0E0,0E0,0E0,0E0,0E0,0E0,0E0,0E0,0E0,0E0,0E0,0E0,0E0,0E0,0E0,0E0,0E0,0E0,0E0,0E0,0E0,0E0,0E0,0E0,0E0],"parents":[2147483647,0,0,1,1,2,2,3,3,4,4,5,5,6,6,7,7,8,8,9,9,10,10,11,11,12,12,13,13,14,14,15,15,16,16,17,17,18,18,19,19,21,21,22,22,23,23,24,24,26,26,27,27,28,28,29,29,30,30,31,31,32,32,33,33,34,34,35,35,36,36,37,37,38,38,40,40,41,41,45,45,46,46,47,47,48,48,49,49,50,50,51,51,53,53,54,54,55,55,56,56,57,57,58,58],"right_children":[2,4,6,8,10,12,14,16,18,20,22,24,26,28,30,32,34,36,38,40,-1,42,44,46,48,-1,50,52,54,56,58,60,62,64,66,68,70,72,74,-1,76,78,-1,-1,-1,80,82,84,86,88,90,92,-1,94,96,98,100,102,104,-1,-1,-1,-1,-1,-1,-1,-1,-1,-1,-1,-1,-1,-1,-1,-1,-1,-1,-1,-1,-1,-1,-1,-1,-1,-1,-1,-1,-1,-1,-1,-1,-1,-1,-1,-1,-1,-1,-1,-1,-1,-1,-1,-1,-1,-1],"split_conditions":[-8.880853E-2,5.724457E-1,-1.0629535E-1,5.4151498E-2,-3.313224E-1,5.525155E-1,-1.1747532E0,-1.3892739E0,4.2861E-1,7.116636E-1,9.0683013E-1,-1.0628293E0,7.9059154E-1,1.9638799E-1,6.8059385E-1,-1.5084026E0,-4.45063E-2,4.8035797E-1,1.1636043E0,-3.0461395E-1,8.823957E-2,1.3535006E0,-3.1631216E-1,1.6356773E0,-4.284307E-1,-1.22685455E-1,7.29441E-1,5.258823E-1,-4.6953267E-1,7.29441E-1,7.29441E-1,-1.9015471E0,-6.033106E-1,-4.8917648E-1,1.9143451E0,-1.710059E-1,3.207626E-1,2.5023546E0,-3.700917E-1,4.459196E-2,-7.1842486E-1,1.7923484E0,8.229415E-4,4.770277E-2,-1.0825638E-1,-1.9394841E0,9.260255E-2,4.3409356E-1,7.9059154E-1,6.636992E-1,1.0559283E0,-1.1224198E0,1.01609245E-1,-1.4777311E0,1.2988521E0,-3.3839303E-1,-1.8723711E-1,-3.4191084E-1,1.0097948E0,8.447447E-3,-9.667328E-2,9.327119E-2,-6.7483336E-2,8.263787E-2,1.4869477E-2,1.1657441E-1,3.9462946E-2,-6.258688E-2,2.6235778E-2,1.731257E-2,1.21206835E-1,-1.18128814E-1,2.0839239E-2,-4.8115548E-2,7.6373264E-2,-0E0,-1.5525587E-1,1.2853561E-1,3.0695815E-2,-5.8267433E-2,-1.2082883E-1,5.562563E-4,-1.07557476E-1,4.4075336E-2,-5.970895E-2,-7.243236E-2,4.0274702E-2,-1.18693426E-1,-3.5305653E-2,1.0393675E-1,-3.5362322E-2,1.4159177E-2,-9.2783935E-2,2.8997837E-2,-8.021107E-2,-1.1799166E-1,-4.4155315E-2,6.698714E-2,-2.827226E-2,-6.4281E-2,1.16573595E-1,-6.390807E-2,-1.2336277E-1,1.1496643E-1,-5.696478E-2],"split_indices":[22,23,18,9,14,9,11,11,13,23,13,11,14,22,9,9,15,14,18,9,0,8,15,1,9,0,23,23,4,23,23,6,9,9,11,15,23,14,15,0,13,6,0,0,0,1,13,23,14,23,22,1,0,5,15,9,14,13,22,0,0,0,0,0,0,0,0,0,0,0,0,0,0,0,0,0,0,0,0,0,0,0,0,0,0,0,0,0,0,0,0,0,0,0,0,0,0,0,0,0,0,0,0,0,0],"split_type":[0,0,0,0,0,0,0,0,0,0,0,0,0,0,0,0,0,0,0,0,0,0,0,0,0,0,0,0,0,0,0,0,0,0,0,0,0,0,0,0,0,0,0,0,0,0,0,0,0,0,0,0,0,0,0,0,0,0,0,0,0,0,0,0,0,0,0,0,0,0,0,0,0,0,0,0,0,0,0,0,0,0,0,0,0,0,0,0,0,0,0,0,0,0,0,0,0,0,0,0,0,0,0,0,0],"sum_hessian":[2.8847424E3,1.2960516E3,1.5886908E3,1.044947E3,2.511046E2,9.0840045E2,6.8029034E2,6.659138E2,3.7903326E2,8.9001E0,2.422045E2,6.327499E2,2.7565054E2,1.05929565E2,5.743608E2,6.1158115E1,6.047557E2,3.1408466E2,6.494861E1,6.859382E0,2.0407176E0,2.3706798E2,5.1365247E0,1.6899518E2,4.6375473E2,2.2280011E2,5.2850445E1,1.2601776E1,9.332779E1,4.325863E2,1.4177444E2,4.7798344E1,1.3359772E1,3.0904788E2,2.957078E2,2.2960268E2,8.448198E1,6.091335E1,4.0352592E0,1.4845912E0,5.374791E0,2.3603175E2,1.036211E0,1.4915854E0,3.6449392E0,1.5868933E2,1.0305838E1,1.7088332E2,2.928714E2,3.5193584E1,1.7656862E1,1.0490383E1,2.1113932E0,1.1626742E1,8.170105E1,3.2034396E2,1.12242355E2,9.656466E1,4.520979E1,4.400765E0,4.339758E1,8.030886E0,5.328885E0,1.5405356E2,1.5499432E2,2.6807727E2,2.763051E1,1.286116E2,1.0099107E2,3.779837E1,4.668361E1,5.9058647E1,1.8547004E0,1.1637431E0,2.8715162E0,1.1170164E0,4.257775E0,2.347824E2,1.2493628E0,8.857419E0,1.4983191E2,5.225153E0,5.080685E0,1.0919375E2,6.1689568E1,2.529403E2,3.99311E1,2.89481E1,6.2454834E0,1.021879E1,7.4380717E0,2.1685922E0,8.321791E0,2.5443435E0,9.082398E0,7.690877E1,4.792277E0,1.5338062E2,1.6696333E2,1.629603E1,9.594632E1,3.5157623E1,6.140704E1,1.9396309E1,2.581348E1],"tree_param":{"num_deleted":"0","num_feature":"37","num_nodes":"105","size_leaf_vector":"1"}},{"base_weights":[-1.1151403E-2,-4.6241087E-1,4.4552538E-1,-8.066413E-1,-1.6152272E-1,2.0087427E-2,6.2961876E-1,-1.075015E0,-5.937717E-1,-4.0186748E-1,4.311145E-1,-3.1099868E-1,2.9658183E-1,2.0763896E-1,8.271129E-1,5.8391917E-2,-1.0833038E0,-7.128693E-1,6.512287E-1,-1.5529536E-1,-1.0090634E0,1.2697139E0,-3.1528276E-1,-5.229708E-1,3.5741007E-1,4.649951E-1,-5.0307566E-1,-2.3301128E-2,7.8992206E-1,9.020829E-1,1.5574361E-1,-8.6603624E-1,-1.1602314E0,-5.41459E-1,-1.1281798E0,-5.25209E-1,9.974646E-1,-5.116695E-1,1.3192995E-1,-6.5569025E-1,-1.1372216E0,-2.5805995E-2,1.2917047E0,-1.0210296E0,3.5272726E-1,-6.265678E-1,4.914725E-1,-1.1685572E-1,4.4877148E-1,1.5170051E-2,7.308081E-1,-6.538443E-1,6.060662E-1,-3.4516934E-1,3.4276924E-1,4.2173266E-1,9.9218255E-1,9.566957E-1,-1.0622119E-1,-5.537739E-2,9.5700324E-1,-1.08978845E-1,-5.2036293E-2,-3.2509472E-2,-1.1706742E-1,-4.0659014E-2,-1.08514465E-1,-1.15269236E-1,-1.1888915E-2,-8.9020535E-2,3.3289995E-2,-4.897651E-2,1.1279482E-1,-1.6083978E-3,-8.322598E-2,-1.6776612E-2,5.5618823E-2,-8.690732E-2,-0E0,-1.1593542E-1,1.9044563E-2,1.3185333E-1,2.1805414E-3,-6.615512E-2,-1.17244415E-1,9.039178E-2,-4.5639634E-2,-3.8522042E-2,-9.626001E-2,9.827427E-2,-8.7997265E-2,5.6669186E-3,8.255499E-2,2.6942326E-2,-6.915187E-2,2.9289484E-2,8.878534E-2,-3.1168262E-2,-1.0454682E-1,8.725452E-2,-1.8992212E-2,-5.2513488E-2,8.663201E-2,1.2720657E-2,1.0405614E-1,5.3648632E-2,-1.0753641E-1,3.1692073E-2,1.0987111E-1,8.199951E-2,1.2174674E-1,6.123499E-2,-7.3668405E-2,-2.1624357E-2,9.324079E-2,1.16187535E-1,-1.1206997E-2],"categories":[],"categories_nodes":[],"categories_segments":[],"categories_sizes":[],"default_left":[0,0,0,0,0,0,0,0,0,0,0,0,0,0,0,0,0,0,0,0,0,0,0,0,0,0,0,0,0,0,0,0,0,0,0,0,0,0,0,0,0,0,0,0,0,0,0,0,0,0,0,0,0,0,0,0,0,0,0,0,0,0,0,0,0,0,0,0,0,0,0,0,0,0,0,0,0,0,0,0,0,0,0,0,0,0,0,0,0,0,0,0,0,0,0,0,0,0,0,0,0,0,0,0,0,0,0,0,0,0,0,0,0,0,0,0,0],"id":10,"left_children":[1,3,5,7,9,11,13,15,17,19,21,23,25,27,29,-1,31,33,35,37,39,41,43,45,47,49,51,53,55,57,59,61,63,65,67,69,71,73,75,77,79,-1,81,83,85,87,89,-1,91,93,95,97,99,101,103,105,107,109,111,113,115,-1,-1,-1,-1,-1,-1,-1,-1,-1,-1,-1,-1,-1,-1,-1,-1,-1,-1,-1,-1,-1,-1,-1,-1,-1,-1,-1,-1,-1,-1,-1,-1,-1,-1,-1,-1,-1,-1,-1,-1,-1,-1,-1,-1,-1,-1,-1,-1,-1,-1,-1,-1,-1,-1,-1,-1],"loss_changes":[5.7566315E2,1.4530875E2,1.0865173E2,3.6611572E1,1.0716503E2,3.858362E1,8.04613E1,4.6463623E0,5.4990158E1,7.9836105E1,1.3638591E2,2.736096E1,3.117937E1,4.1828903E1,3.2944275E1,0E0,3.5935364E0,2.3151321E1,1.3830258E1,3.919026E1,6.0598145E0,3.8803253E0,5.4927765E1,1.5669846E1,6.9534736E0,2.2686749E1,7.1496534E0,2.6401659E1,6.0148315E0,3.2832336E1,1.15755415E1,5.412613E0,1.2912903E0,1.7010017E1,2.1382904E0,2.8549907E0,5.576498E0,2.7033188E1,2.7096664E1,6.1551743E0,3.5974426E0,0E0,3.2875977E0,2.1186485E0,2.7242924E1,1.0284176E1,1.0309899E1,0E0,6.480775E0,1.3063321E1,7.843704E0,4.3741426E0,1.3515909E0,2.6440762E1,1.5503108E1,6.229705E0,3.54348E0,1.8852478E1,1.4628192E1,8.763933E0,3.3556185E0,0E0,0E0,0E0,0E0,0E0,0E0,0E0,0E0,0E0,0E0,0E0,0E0,0E0,0E0,0E0,0E0,0E0,0E0,0E0,0E0,0E0,0E0,0E0,0E0,0E0,0E0,0E0,0E0,0E0,0E0,0E0,0E0,0E0,0E0,0E0,0E0,0E0,0E0,0E0,0E0,0E0,0E0,0E0,0E0,0E0,0E0,0E0,0E0,0E0,0E0,0E0,0E0,0E0,0E0,0E0,0E0],"parents":[2147483647,0,0,1,1,2,2,3,3,4,4,5,5,6,6,7,7,8,8,9,9,10,10,11,11,12,12,13,13,14,14,16,16,17,17,18,18,19,19,20,20,21,21,22,22,23,23,24,24,25,25,26,26,27,27,28,28,29,29,30,30,31,31,32,32,33,33,34,34,35,35,36,36,37,37,38,38,39,39,40,40,42,42,43,43,44,44,45,45,46,46,48,48,49,49,50,50,51,51,52,52,53,53,54,54,55,55,56,56,57,57,58,58,59,59,60,60],"right_children":[2,4,6,8,10,12,14,16,18,20,22,24,26,28,30,-1,32,34,36,38,40,42,44,46,48,50,52,54,56,58,60,62,64,66,68,70,72,74,76,78,80,-1,82,84,86,88,90,-1,92,94,96,98,100,102,104,106,108,110,112,114,116,-1,-1,-1,-1,-1,-1,-1,-1,-1,-1,-1,-1,-1,-1,-1,-1,-1,-1,-1,-1,-1,-1,-1,-1,-1,-1,-1,-1,-1,-1,-1,-1,-1,-1,-1,-1,-1,-1,-1,-1,-1,-1,-1,-1,-1,-1,-1,-1,-1,-1,-1,-1,-1,-1,-1,-1],"split_conditions":[-5.7706248E-2,-2.6642826E-1,-7.877681E-1,-8.270012E-1,7.29441E-1,-3.6905673E-1,-3.984223E-1,-1.8934737E0,7.358189E-1,6.1761856E-1,9.049459E-1,2.830504E-1,9.260255E-2,1.1019312E0,-6.949437E-2,5.8391917E-2,-1.3857512E-1,7.048533E-1,-2.9498535E-1,-6.1577666E-1,8.6229765E-1,-8.487586E-1,8.5393333E-1,5.4330343E-1,-2.1898632E0,-4.1023064E-1,1.6602752E0,-1.5441178E-1,-4.45063E-2,8.6229765E-1,9.049503E-1,-1.079326E0,-2.0299103E0,6.5484935E-1,2.0670528E0,-4.8363805E-1,-7.613393E-1,-5.137656E-1,-1.5961067E-1,6.3425785E-1,3.2547917E0,-2.5805995E-2,7.102064E-1,1.2194927E0,1.5403303E0,-3.7891832E-1,-5.0607114E-3,-1.1685572E-1,7.449389E-1,1.8167457E-1,-4.063296E-2,5.447794E-1,-1.898181E-1,1.4808067E0,5.4330343E-1,1.5959262E0,-1.0887578E0,5.062133E-1,-2.899993E-1,6.636992E-1,8.6380565E-1,-1.08978845E-1,-5.2036293E-2,-3.2509472E-2,-1.1706742E-1,-4.0659014E-2,-1.08514465E-1,-1.15269236E-1,-1.1888915E-2,-8.9020535E-2,3.3289995E-2,-4.897651E-2,1.1279482E-1,-1.6083978E-3,-8.322598E-2,-1.6776612E-2,5.5618823E-2,-8.690732E-2,-0E0,-1.1593542E-1,1.9044563E-2,1.3185333E-1,2.1805414E-3,-6.615512E-2,-1.17244415E-1,9.039178E-2,-4.5639634E-2,-3.8522042E-2,-9.626001E-2,9.827427E-2,-8.7997265E-2,5.6669186E-3,8.255499E-2,2.6942326E-2,-6.915187E-2,2.9289484E-2,8.878534E-2,-3.1168262E-2,-1.0454682E-1,8.725452E-2,-1.8992212E-2,-5.2513488E-2,8.663201E-2,1.2720657E-2,1.0405614E-1,5.3648632E-2,-1.0753641E-1,3.1692073E-2,1.0987111E-1,8.199951E-2,1.2174674E-1,6.123499E-2,-7.3668405E-2,-2.1624357E-2,9.324079E-2,1.16187535E-1,-1.1206997E-2],"split_indices":[28,18,15,28,23,25,18,0,23,13,22,8,13,28,24,0,8,13,0,28,13,1,23,23,25,18,28,0,15,13,15,28,1,10,6,18,18,23,15,15,15,0,25,22,22,22,22,0,28,23,25,13,1,15,23,3,1,23,8,23,5,0,0,0,0,0,0,0,0,0,0,0,0,0,0,0,0,0,0,0,0,0,0,0,0,0,0,0,0,0,0,0,0,0,0,0,0,0,0,0,0,0,0,0,0,0,0,0,0,0,0,0,0,0,0,0,0],"split_type":[0,0,0,0,0,0,0,0,0,0,0,0,0,0,0,0,0,0,0,0,0,0,0,0,0,0,0,0,0,0,0,0,0,0,0,0,0,0,0,0,0,0,0,0,0,0,0,0,0,0,0,0,0,0,0,0,0,0,0,0,0,0,0,0,0,0,0,0,0,0,0,0,0,0,0,0,0,0,0,0,0,0,0,0,0,0,0,0,0,0,0,0,0,0,0,0,0,0,0,0,0,0,0,0,0,0,0,0,0,0,0,0,0,0,0,0,0],"sum_hessian":[2.791392E3,1.4041274E3,1.3872646E3,6.5395667E2,7.5017084E2,4.194869E2,9.677777E2,2.872671E2,3.6668958E2,5.340691E2,2.1610176E2,1.9067644E2,2.2881049E2,3.0935214E2,6.584256E2,1.0229486E0,2.8624414E2,3.351378E2,3.1551783E1,3.808377E2,1.5323138E2,1.0149828E2,1.1460347E2,1.4504544E2,4.563099E1,1.894538E2,3.9356686E1,2.2206635E2,8.728579E1,5.9184344E2,6.658215E1,7.8393654E1,2.0785048E2,2.3902855E2,9.610924E1,6.9912453E0,2.4560535E1,1.6976675E2,2.1107095E2,4.2617584E1,1.106138E2,1.2233868E0,1.002749E2,5.5543488E1,5.9059986E1,1.3204198E2,1.3003466E1,1.8497883E0,4.37812E1,7.090213E1,1.1855167E2,3.5087765E1,4.268921E0,1.1834314E2,1.03723206E2,3.2217484E1,5.5068302E1,5.6157715E2,3.026631E1,5.333515E1,1.3247003E1,4.6106956E1,3.2286694E1,3.082013E0,2.0476846E2,1.9306728E2,4.5961277E1,9.3594955E1,2.5142884E0,4.960451E0,2.0307944E0,1.6971264E0,2.2863409E1,6.721866E1,1.0254809E2,1.2390987E2,8.716109E1,3.1977697E1,1.0639885E1,1.0899885E2,1.6149524E0,9.808565E1,2.189251E0,1.8248552E1,3.7294933E1,3.5133087E1,2.3926899E1,7.82702E1,5.3771782E1,9.8363085E0,3.1671572E0,2.2148115E1,2.1633087E1,5.2701416E1,1.8200712E1,3.2217243E1,8.633443E1,1.9821201E1,1.5266562E1,3.2202914E0,1.0486294E0,1.0360222E2,1.4740922E1,8.025604E1,2.3467167E1,3.0581808E1,1.6356752E0,8.173282E0,4.6895023E1,3.7140753E2,1.9016959E2,1.4084077E1,1.6182234E1,4.6624428E1,6.7107215E0,1.1122309E1,2.1246939E0],"tree_param":{"num_deleted":"0","num_feature":"37","num_nodes":"117","size_leaf_vector":"1"}},{"base_weights":[1.8723803E-3,-5.4824346E-1,3.4242296E-1,-7.911449E-1,-1.6079958E-1,-7.1641546E-1,4.2071295E-1,-1.039816E0,-6.1172384E-1,-5.5043906E-1,2.0076291E-1,-8.7204975E-1,1.4361092E-1,8.689084E-2,6.7081535E-1,-0E0,-1.0626994E0,-7.605694E-1,8.592525E-3,-4.1610625E-2,-8.5833806E-1,-2.0523864E-1,5.0501376E-1,-1.0611029E0,-5.790784E-1,-5.7188237E-1,6.6070503E-1,-1.3736299E-1,5.1051885E-1,2.6074538E-1,8.2856435E-1,-5.330304E-1,1.186133E-1,-1.1676087E0,-8.9457124E-1,-5.686105E-1,-1.0996927E0,3.745078E-1,-8.7747604E-1,-9.12224E-1,2.7003977E-1,-1.1143892E0,-5.8719563E-1,-7.4272007E-1,2.4276666E-1,-7.326772E-1,7.27296E-1,-2.2615016E-1,-1.1360793E0,-8.3503133E-1,1.18430175E-1,-9.0520155E-1,6.89022E-2,1.1722292E0,-4.5067033E-1,-2.625233E-1,6.772639E-1,-1.571452E-2,7.6911926E-1,2.1761479E-2,6.522501E-1,4.4171306E-1,9.6836656E-1,4.843205E-2,-9.757276E-2,-1.1831035E-1,-3.4881998E-2,6.622394E-2,-9.229429E-2,-8.6169444E-2,-3.097947E-2,-1.1153269E-1,2.2307744E-2,-7.2738186E-2,6.0862567E-2,-1.4064175E-2,-1.0251721E-1,-1.4682263E-2,-1.0521551E-1,-2.4502056E-2,6.36804E-2,-1.1417514E-1,-0E0,-2.9910078E-2,-1.0597608E-1,-8.951694E-2,3.4506064E-2,-5.5862933E-2,4.837667E-2,1.3531908E-2,-9.8472655E-2,9.5757894E-2,-4.2009797E-2,-8.204726E-2,7.1022384E-2,-1.7537948E-2,-1.2086481E-1,-5.4203402E-2,-1.4574866E-1,3.9302524E-2,-8.617712E-2,7.2363764E-3,-1.174353E-1,1.253781E-1,2.8081317E-2,-1.3504645E-1,4.7869623E-2,-3.940196E-2,3.0207187E-2,9.2930466E-2,-3.7722196E-2,-1.7886791E-2,1.0043793E-1,6.271674E-2,1.16605856E-1,-1.3090341E-2,4.6183515E-2,8.071309E-2,-2.2983916E-2,-5.9998065E-2,6.0689855E-2,1.0333263E-1,-1.2437055E-2],"categories":[],"categories_nodes":[],"categories_segments":[],"categories_sizes":[],"default_left":[0,0,0,0,0,0,0,0,0,0,0,0,0,0,0,0,0,0,0,0,0,0,0,0,0,0,0,0,0,0,0,0,0,0,0,0,0,0,0,0,0,0,0,0,0,0,0,0,0,0,0,0,0,0,0,0,0,0,0,0,0,0,0,0,0,0,0,0,0,0,0,0,0,0,0,0,0,0,0,0,0,0,0,0,0,0,0,0,0,0,0,0,0,0,0,0,0,0,0,0,0,0,0,0,0,0,0,0,0,0,0,0,0,0,0,0,0,0,0,0,0,0,0],"id":11,"left_children":[1,3,5,7,9,11,13,15,17,19,21,23,25,27,29,31,33,35,37,39,41,43,45,47,49,51,53,55,57,59,61,63,-1,65,67,69,71,73,75,77,79,81,83,85,87,89,91,93,95,97,99,101,-1,103,105,107,109,111,113,115,117,119,121,-1,-1,-1,-1,-1,-1,-1,-1,-1,-1,-1,-1,-1,-1,-1,-1,-1,-1,-1,-1,-1,-1,-1,-1,-1,-1,-1,-1,-1,-1,-1,-1,-1,-1,-1,-1,-1,-1,-1,-1,-1,-1,-1,-1,-1,-1,-1,-1,-1,-1,-1,-1,-1,-1,-1,-1,-1,-1,-1,-1],"loss_changes":[5.0674234E2,9.710339E1,1.3877904E2,2.7541077E1,5.648651E1,1.5633331E1,1.298201E2,6.321686E0,3.439769E1,3.0093792E1,2.5831535E1,4.6432037E0,7.2057157E0,6.356768E1,5.7216797E1,4.867973E0,3.315857E0,1.8729355E1,2.387594E1,2.035914E1,7.506508E0,2.1826344E1,3.336734E1,3.243164E0,7.4546833E0,4.0861773E0,6.992516E0,4.47349E1,3.1602367E1,2.3193195E1,3.413977E1,2.8998518E0,0E0,1.4105072E0,5.236229E0,1.431258E1,2.5535583E0,1.3920293E1,2.078043E0,1.8453064E0,1.0603889E1,1.8080978E0,7.7954063E0,7.182825E0,9.835949E0,4.287614E0,2.7340569E1,4.0132833E0,3.3405533E0,4.4954224E0,3.4473574E0,2.0291266E0,0E0,7.888317E-2,4.24973E0,2.8339428E1,1.5934336E1,1.29387865E1,7.8470078E0,1.0551488E1,1.3098812E1,3.0028118E1,3.3608673E1,0E0,0E0,0E0,0E0,0E0,0E0,0E0,0E0,0E0,0E0,0E0,0E0,0E0,0E0,0E0,0E0,0E0,0E0,0E0,0E0,0E0,0E0,0E0,0E0,0E0,0E0,0E0,0E0,0E0,0E0,0E0,0E0,0E0,0E0,0E0,0E0,0E0,0E0,0E0,0E0,0E0,0E0,0E0,0E0,0E0,0E0,0E0,0E0,0E0,0E0,0E0,0E0,0E0,0E0,0E0,0E0,0E0,0E0,0E0,0E0],"parents":[2147483647,0,0,1,1,2,2,3,3,4,4,5,5,6,6,7,7,8,8,9,9,10,10,11,11,12,12,13,13,14,14,15,15,16,16,17,17,18,18,19,19,20,20,21,21,22,22,23,23,24,24,25,25,26,26,27,27,28,28,29,29,30,30,31,31,33,33,34,34,35,35,36,36,37,37,38,38,39,39,40,40,41,41,42,42,43,43,44,44,45,45,46,46,47,47,48,48,49,49,50,50,51,51,53,53,54,54,55,55,56,56,57,57,58,58,59,59,60,60,61,61,62,62],"right_children":[2,4,6,8,10,12,14,16,18,20,22,24,26,28,30,32,34,36,38,40,42,44,46,48,50,52,54,56,58,60,62,64,-1,66,68,70,72,74,76,78,80,82,84,86,88,90,92,94,96,98,100,102,-1,104,106,108,110,112,114,116,118,120,122,-1,-1,-1,-1,-1,-1,-1,-1,-1,-1,-1,-1,-1,-1,-1,-1,-1,-1,-1,-1,-1,-1,-1,-1,-1,-1,-1,-1,-1,-1,-1,-1,-1,-1,-1,-1,-1,-1,-1,-1,-1,-1,-1,-1,-1,-1,-1,-1,-1,-1,-1,-1,-1,-1,-1,-1,-1,-1,-1,-1],"split_conditions":[-3.427422E-1,-3.6165822E-2,-1.3892739E0,-9.7909915E-1,-2.0562425E-1,1.1049745E0,-2.6642826E-1,-1.2846717E0,5.8686805E-1,7.671961E-1,-1.3793361E-1,4.7052085E-1,2.323179E-1,7.76042E-1,-7.877681E-1,1.5714422E0,-1.3113885E-1,4.9360842E-1,6.2698144E-1,-8.397469E-1,6.363376E-2,-3.0106685E-1,-8.8876134E-1,-1.9394841E0,-4.3663654E-1,4.598403E-1,4.987764E-1,1.0752243E0,-5.380807E-1,-7.722976E-2,-5.292932E-1,-9.8473233E-1,1.186133E-1,2.8386223E0,7.5596176E-2,2.316338E-2,3.6942601E0,-1.1205584E0,-9.225776E-1,4.4592015E-2,-4.0323606E-1,1.5242351E0,7.8422797E-1,1.0550082E0,-4.3866828E-1,-3.9454722E-1,1.3112073E0,2.1260262E-1,-1.770231E0,1.39093E-1,5.447794E-1,-1.1821557E0,6.89022E-2,1.0908518E0,-7.877681E-1,7.85939E-1,5.622701E-1,1.5714422E0,1.3843558E0,2.830504E-1,9.260255E-2,-6.33186E-1,9.5678174E-1,4.843205E-2,-9.757276E-2,-1.1831035E-1,-3.4881998E-2,6.622394E-2,-9.229429E-2,-8.6169444E-2,-3.097947E-2,-1.1153269E-1,2.2307744E-2,-7.2738186E-2,6.0862567E-2,-1.4064175E-2,-1.0251721E-1,-1.4682263E-2,-1.0521551E-1,-2.4502056E-2,6.36804E-2,-1.1417514E-1,-0E0,-2.9910078E-2,-1.0597608E-1,-8.951694E-2,3.4506064E-2,-5.5862933E-2,4.837667E-2,1.3531908E-2,-9.8472655E-2,9.5757894E-2,-4.2009797E-2,-8.204726E-2,7.1022384E-2,-1.7537948E-2,-1.2086481E-1,-5.4203402E-2,-1.4574866E-1,3.9302524E-2,-8.617712E-2,7.2363764E-3,-1.174353E-1,1.253781E-1,2.8081317E-2,-1.3504645E-1,4.7869623E-2,-3.940196E-2,3.0207187E-2,9.2930466E-2,-3.7722196E-2,-1.7886791E-2,1.0043793E-1,6.271674E-2,1.16605856E-1,-1.3090341E-2,4.6183515E-2,8.071309E-2,-2.2983916E-2,-5.9998065E-2,6.0689855E-2,1.0333263E-1,-1.2437055E-2],"split_indices":[28,18,11,28,11,12,18,3,14,22,14,28,28,28,15,8,11,13,25,12,12,7,1,1,24,24,3,14,15,25,14,14,0,12,11,16,15,11,16,24,1,16,10,15,25,13,13,25,13,14,13,1,0,16,15,15,25,8,15,8,13,25,13,0,0,0,0,0,0,0,0,0,0,0,0,0,0,0,0,0,0,0,0,0,0,0,0,0,0,0,0,0,0,0,0,0,0,0,0,0,0,0,0,0,0,0,0,0,0,0,0,0,0,0,0,0,0,0,0,0,0,0,0],"split_type":[0,0,0,0,0,0,0,0,0,0,0,0,0,0,0,0,0,0,0,0,0,0,0,0,0,0,0,0,0,0,0,0,0,0,0,0,0,0,0,0,0,0,0,0,0,0,0,0,0,0,0,0,0,0,0,0,0,0,0,0,0,0,0,0,0,0,0,0,0,0,0,0,0,0,0,0,0,0,0,0,0,0,0,0,0,0,0,0,0,0,0,0,0,0,0,0,0,0,0,0,0,0,0,0,0,0,0,0,0,0,0,0,0,0,0,0,0,0,0,0,0,0,0],"sum_hessian":[2.703009E3,1.033163E3,1.6698461E3,6.3423804E2,3.9892496E2,1.1431789E2,1.5555282E3,2.6357703E2,3.7066104E2,1.9188905E2,2.070359E2,9.688706E1,1.7430824E1,6.6700116E2,8.88527E2,5.6740255E0,2.57903E2,2.9887967E2,7.1781364E1,7.2890854E1,1.1899819E2,8.8686584E1,1.1834932E2,5.708632E1,3.9800743E1,7.1869864E0,1.0243839E1,4.36417E2,2.3058418E2,2.477598E2,6.407672E2,4.28033E0,1.3936955E0,1.5478206E2,1.0312093E2,1.9274756E2,1.0613212E2,5.1290417E1,2.0490952E1,1.8790977E1,5.409988E1,5.941312E1,5.9585075E1,4.0119614E1,4.856697E1,1.7600704E1,1.0074861E2,5.144635E0,5.1941685E1,2.9077036E1,1.0723705E1,5.9701824E0,1.216804E0,7.039189E0,3.2046502E0,3.789891E2,5.742787E1,7.615887E1,1.5442531E2,1.5466164E2,9.309817E1,1.713882E2,4.69379E2,1.2008281E0,3.0795019E0,1.5135083E2,3.4312346E0,1.3827089E0,1.0173823E2,8.911625E1,1.036313E2,1.0512207E2,1.0100422E0,8.543917E0,4.27465E1,3.8605483E0,1.6630404E1,3.3315902E0,1.5459387E1,2.2525621E1,3.157426E1,5.79392E1,1.4739178E0,3.8163563E1,2.142151E1,3.5424034E1,4.695579E0,1.082795E1,3.773902E1,3.9757092E0,1.3624996E1,8.411854E1,1.6630075E1,3.288179E0,1.856456E0,3.9847298E0,4.7956955E1,2.1151989E1,7.9250464E0,8.924608E0,1.7990971E0,1.3665259E0,4.6036563E0,5.9739704E0,1.0652182E0,1.4526864E0,1.7519636E0,3.0778427E2,7.120485E1,4.652187E1,1.0906003E1,6.645308E1,9.705792E0,1.1583334E2,3.8591957E1,1.1518009E2,3.9481537E1,7.936183E1,1.3736329E1,2.301477E1,1.4837343E2,4.4317932E2,2.6199678E1],"tree_param":{"num_deleted":"0","num_feature":"37","num_nodes":"123","size_leaf_vector":"1"}},{"base_weights":[6.83142E-3,-3.7402543E-1,4.1977766E-1,-8.1747025E-1,-1.9378369E-1,4.9627602E-1,-4.6297982E-1,-9.221901E-1,2.264578E-1,-3.8501114E-1,8.020091E-1,-6.281311E-1,5.588959E-1,2.371697E-1,-8.815649E-1,-7.7937067E-1,-1.0674087E0,9.9208E-1,-7.174303E-1,-3.4211893E-2,-7.608368E-1,-4.677225E-1,1.0531782E0,-4.2134768E-1,-1.1986973E0,1.8135983E-1,7.1143705E-1,-6.403185E-1,8.2059187E-1,-9.536344E-1,3.19617E-1,-1.129634E0,-6.099609E-1,-1.1202124E0,-5.599549E-1,-2.4358803E-1,1.1764218E0,-1.0454874E0,-1.04820415E-1,-9.9386907E-1,2.332076E-1,-2.2363895E-1,-9.347204E-1,6.570322E-1,-6.9361895E-1,2.5632203E-1,1.1909106E0,-7.0493454E-1,4.808678E-2,-2.7626727E-2,-1.24350466E-1,6.156196E-1,-1.8530336E-1,8.4542704E-1,3.9404687E-1,-1.0052705E0,9.764587E-2,1.1202232E0,-9.380195E-2,-3.7578714E-1,-1.1193831E0,8.937998E-2,-6.425821E-2,-1.8042652E-2,-1.1434853E-1,3.7469115E-2,-7.300914E-2,-1.1313182E-1,7.5223907E-3,4.3952793E-2,-1.089607E-1,-7.522582E-2,4.5026E-2,1.2810796E-1,-1.9493448E-2,-0E0,-1.18151285E-1,-1.0970887E-1,7.9090565E-2,-2.0394374E-2,-1.0519095E-1,-5.9186447E-2,4.565494E-2,-5.615312E-2,3.7403848E-2,-1.02883436E-1,-4.1590612E-2,1.0750999E-1,-2.0990264E-2,1.0282109E-3,-1.1791996E-1,1.0908113E-1,-6.353384E-2,1.23430155E-1,-3.0025152E-2,-1.7149989E-2,-9.6772134E-2,7.298683E-2,-6.942605E-2,4.7423705E-3,7.738036E-2,5.651324E-2,-3.4752626E-2,5.4410607E-2,9.7060256E-2,6.4539425E-2,-6.2928796E-3,1.2666935E-2,-1.1962052E-1,7.292193E-2,-9.343389E-2,-1.0291668E-2,1.2044777E-1,-9.854705E-2,3.8211774E-2,-4.8599634E-2,-1.2243485E-1],"categories":[],"categories_nodes":[],"categories_segments":[],"categories_sizes":[],"default_left":[0,0,0,0,0,0,0,0,0,0,0,0,0,0,0,0,0,0,0,0,0,0,0,0,0,0,0,0,0,0,0,0,0,0,0,0,0,0,0,0,0,0,0,0,0,0,0,0,0,0,0,0,0,0,0,0,0,0,0,0,0,0,0,0,0,0,0,0,0,0,0,0,0,0,0,0,0,0,0,0,0,0,0,0,0,0,0,0,0,0,0,0,0,0,0,0,0,0,0,0,0,0,0,0,0,0,0,0,0,0,0,0,0,0,0,0,0],"id":12,"left_children":[1,3,5,7,9,11,13,15,17,19,21,23,25,27,29,31,33,35,37,39,41,43,45,47,49,51,53,55,57,59,61,63,65,67,69,71,73,75,77,79,81,83,85,87,89,91,93,95,97,-1,-1,99,101,103,105,107,109,111,-1,113,115,-1,-1,-1,-1,-1,-1,-1,-1,-1,-1,-1,-1,-1,-1,-1,-1,-1,-1,-1,-1,-1,-1,-1,-1,-1,-1,-1,-1,-1,-1,-1,-1,-1,-1,-1,-1,-1,-1,-1,-1,-1,-1,-1,-1,-1,-1,-1,-1,-1,-1,-1,-1,-1,-1,-1,-1],"loss_changes":[4.1764804E2,1.10145645E2,8.627959E1,4.386676E1,1.875667E2,8.294794E1,3.0175097E1,6.504944E0,2.7525763E1,1.0878079E2,5.1162216E1,6.680464E0,6.3815918E1,2.0444534E1,5.921974E0,1.0226761E1,3.941208E0,5.1505966E0,3.2165003E0,1.1023789E2,3.6903E1,7.277484E0,1.4131989E1,6.407134E0,1.614666E-1,5.1349346E1,3.319873E1,4.502788E0,1.3639484E1,5.2581596E0,2.9760928E0,4.4435883E-1,1.5489098E1,2.300644E0,1.05162735E1,1.596062E0,3.0088005E0,1.5104704E0,7.288068E0,3.9523392E0,6.2123367E1,2.0204224E1,1.410672E1,2.0981333E0,7.958665E0,1.6335575E1,7.7690125E0,3.888177E0,9.947762E0,0E0,0E0,1.314212E1,2.1474295E1,2.026825E1,2.7322544E1,2.6135159E0,4.650305E0,2.3866596E0,0E0,7.4624186E0,2.3353348E0,0E0,0E0,0E0,0E0,0E0,0E0,0E0,0E0,0E0,0E0,0E0,0E0,0E0,0E0,0E0,0E0,0E0,0E0,0E0,0E0,0E0,0E0,0E0,0E0,0E0,0E0,0E0,0E0,0E0,0E0,0E0,0E0,0E0,0E0,0E0,0E0,0E0,0E0,0E0,0E0,0E0,0E0,0E0,0E0,0E0,0E0,0E0,0E0,0E0,0E0,0E0,0E0,0E0,0E0,0E0,0E0],"parents":[2147483647,0,0,1,1,2,2,3,3,4,4,5,5,6,6,7,7,8,8,9,9,10,10,11,11,12,12,13,13,14,14,15,15,16,16,17,17,18,18,19,19,20,20,21,21,22,22,23,23,24,24,25,25,26,26,27,27,28,28,29,29,30,30,31,31,32,32,33,33,34,34,35,35,36,36,37,37,38,38,39,39,40,40,41,41,42,42,43,43,44,44,45,45,46,46,47,47,48,48,51,51,52,52,53,53,54,54,55,55,56,56,57,57,59,59,60,60],"right_children":[2,4,6,8,10,12,14,16,18,20,22,24,26,28,30,32,34,36,38,40,42,44,46,48,50,52,54,56,58,60,62,64,66,68,70,72,74,76,78,80,82,84,86,88,90,92,94,96,98,-1,-1,100,102,104,106,108,110,112,-1,114,116,-1,-1,-1,-1,-1,-1,-1,-1,-1,-1,-1,-1,-1,-1,-1,-1,-1,-1,-1,-1,-1,-1,-1,-1,-1,-1,-1,-1,-1,-1,-1,-1,-1,-1,-1,-1,-1,-1,-1,-1,-1,-1,-1,-1,-1,-1,-1,-1,-1,-1,-1,-1,-1,-1,-1,-1],"split_conditions":[-4.734321E-3,-9.7909915E-1,1.055965E0,9.192626E-1,7.29441E-1,-1.5084026E0,-7.3022556E-1,1.8445018E-1,1.6953E0,-5.9465375E-2,-5.470299E-2,3.113369E-1,-7.877681E-1,2.743999E-1,6.636992E-1,-1.5084026E0,8.5393333E-1,-1.5543252E-1,7.5870824E-1,-1.5084026E0,-6.287576E-1,-1.2357707E0,-1.6273285E-1,-2.7930775E-1,-1.358799E0,-3.8639227E-1,-4.6647787E-1,-1.8205373E-1,5.5237457E-2,-1.157575E0,1.0549629E0,-7.3661613E-1,-9.3719435E-1,2.5877151E0,1.4347088E0,-1.079326E0,1.8319259E0,-8.2874E-1,-1.4289329E0,-2.0299103E0,-5.754329E-1,5.4330343E-1,7.9059154E-1,8.073722E-1,7.870471E-2,4.6458048E-1,1.2194927E0,-1.4269109E0,-3.2433593E-1,-2.7626727E-2,-1.24350466E-1,-6.792368E-1,-1.3319991E0,-4.7227618E-1,1.3321985E-1,-1.0615779E0,-3.3212095E-2,-3.6423662E-1,-9.380195E-2,-3.4981078E-1,-8.412709E-1,8.937998E-2,-6.425821E-2,-1.8042652E-2,-1.1434853E-1,3.7469115E-2,-7.300914E-2,-1.1313182E-1,7.5223907E-3,4.3952793E-2,-1.089607E-1,-7.522582E-2,4.5026E-2,1.2810796E-1,-1.9493448E-2,-0E0,-1.18151285E-1,-1.0970887E-1,7.9090565E-2,-2.0394374E-2,-1.0519095E-1,-5.9186447E-2,4.565494E-2,-5.615312E-2,3.7403848E-2,-1.02883436E-1,-4.1590612E-2,1.0750999E-1,-2.0990264E-2,1.0282109E-3,-1.1791996E-1,1.0908113E-1,-6.353384E-2,1.23430155E-1,-3.0025152E-2,-1.7149989E-2,-9.6772134E-2,7.298683E-2,-6.942605E-2,4.7423705E-3,7.738036E-2,5.651324E-2,-3.4752626E-2,5.4410607E-2,9.7060256E-2,6.4539425E-2,-6.2928796E-3,1.2666935E-2,-1.1962052E-1,7.292193E-2,-9.343389E-2,-1.0291668E-2,1.2044777E-1,-9.854705E-2,3.8211774E-2,-4.8599634E-2,-1.2243485E-1],"split_indices":[28,28,9,23,23,9,25,9,22,9,14,13,15,23,23,9,23,3,4,9,8,25,3,25,6,9,22,15,24,24,6,4,9,1,22,28,13,8,25,1,25,23,14,22,9,22,22,13,6,0,0,25,24,3,9,6,13,3,0,3,5,0,0,0,0,0,0,0,0,0,0,0,0,0,0,0,0,0,0,0,0,0,0,0,0,0,0,0,0,0,0,0,0,0,0,0,0,0,0,0,0,0,0,0,0,0,0,0,0,0,0,0,0,0,0,0,0],"split_type":[0,0,0,0,0,0,0,0,0,0,0,0,0,0,0,0,0,0,0,0,0,0,0,0,0,0,0,0,0,0,0,0,0,0,0,0,0,0,0,0,0,0,0,0,0,0,0,0,0,0,0,0,0,0,0,0,0,0,0,0,0,0,0,0,0,0,0,0,0,0,0,0,0,0,0,0,0,0,0,0,0,0,0,0,0,0,0,0,0,0,0,0,0,0,0,0,0,0,0,0,0,0,0,0,0,0,0,0,0,0,0,0,0,0,0,0,0],"sum_hessian":[2.6535266E3,1.3803206E3,1.273206E3,3.977225E2,9.825981E2,1.1721781E3,1.0102802E2,3.6165598E2,3.606652E1,8.2490155E2,1.5769652E2,6.1275894E1,1.1109021E3,3.7873363E1,6.3154663E1,1.8589122E2,1.7576477E2,1.9944056E1,1.6122465E1,4.273583E2,3.9754324E2,2.5834648E1,1.3186186E2,4.6380505E1,1.4895388E1,3.205046E2,7.903975E2,1.5017529E1,2.2855833E1,5.9852898E1,3.3017652E0,5.855904E1,1.2733218E2,1.5792691E2,1.7837858E1,2.4769392E0,1.7467115E1,9.933275E0,6.1891894E0,9.26246E1,3.347337E2,9.791254E1,2.996307E2,3.9276013E0,2.1907047E1,1.9961418E1,1.11900444E2,2.8733725E1,1.764678E1,1.1253669E0,1.37700205E1,1.4654129E2,1.7396332E2,5.5438055E2,2.3601695E2,9.896576E0,5.1209526E0,1.9887314E1,2.9685197E0,1.420405E1,4.564885E1,2.177424E0,1.1243412E0,1.1477988E0,5.7411243E1,1.352476E1,1.1380742E2,1.5660928E2,1.317628E0,6.1721067E0,1.1665751E1,1.4637692E0,1.01317E0,1.635751E1,1.1096065E0,1.2905208E0,8.642755E0,2.8826652E0,3.3065243E0,6.7667294E0,8.585788E1,7.086086E1,2.6387286E2,6.2695766E1,3.5216766E1,2.5262775E2,4.700296E1,2.5656052E0,1.3619962E0,9.258601E0,1.2648445E1,1.0253837E1,9.7075815E0,1.089689E2,2.931543E0,1.0154374E1,1.857935E1,9.277616E0,8.369165E0,3.233308E1,1.1420821E2,3.0370527E1,1.4359279E2,1.6451286E2,3.898677E2,1.5214186E2,8.38751E1,1.4013911E0,8.495185E0,3.4188828E0,1.7020699E0,1.1908679E0,1.8696445E1,7.7784767E0,6.4255733E0,7.425336E0,3.822351E1],"tree_param":{"num_deleted":"0","num_feature":"37","num_nodes":"117","size_leaf_vector":"1"}},{"base_weights":[-2.1984421E-3,-6.124128E-1,2.2926551E-1,-7.3465186E-1,2.4345669E-1,1.0929506E-1,1.0168958E0,-5.193474E-1,-1.0253881E0,-8.3284885E-1,6.7882156E-1,3.220831E-1,-4.7219384E-1,1.0947392E0,-3.1075665E-1,-1.0694883E0,-3.3075562E-1,-4.6845374E-1,-1.0646456E0,6.8818755E-2,-9.398871E-1,1.0535821E0,-1.6845454E-1,-7.248118E-1,4.306076E-1,2.0197755E-2,-8.139579E-1,1.1376477E0,-8.535576E-1,-9.111373E-1,4.8685604E-1,6.410221E-2,-1.1156465E0,1.5737714E-1,-6.152372E-1,-1.0216727E0,6.788266E-2,-0E0,-1.074799E0,-1.1033732E0,-4.032466E-1,1.1752677E0,-9.5552966E-2,-8.3705175E-1,3.767914E-1,-5.165966E-1,-1.1516169E0,1.789862E-1,7.7355355E-1,-3.3271483E-1,8.670731E-1,-5.455388E-1,-1.0482421E0,1.1602466E0,-6.5882874E-1,2.0580825E-3,-1.0937454E-1,-1.1586723E0,3.203373E-2,-9.908778E-2,1.368104E-1,9.836459E-2,-7.70499E-2,-4.9874846E-2,-1.1385315E-1,-2.818638E-2,6.958931E-2,-1.02487564E-1,-3.655566E-2,-1.3545029E-2,-1.1013712E-1,-7.53824E-2,8.424413E-2,6.853717E-2,-6.286734E-2,1.381497E-2,-1.0813611E-1,-1.1723339E-1,-3.087011E-2,-1.126879E-1,4.6642125E-2,-7.428116E-2,1.24485016E-1,-6.734161E-3,-1.059351E-1,9.7884886E-2,-4.9197078E-2,-5.98068E-2,3.666055E-2,-1.9613357E-2,-1.1727966E-1,-1.1812452E-3,5.962618E-2,9.5115826E-2,4.0032063E-2,-6.5983064E-2,3.3335317E-2,1.0270428E-1,-1.0571267E-1,-6.9368094E-2,1.851259E-2,-1.07621066E-1,1.80809E-3,-6.953584E-2,1.1731998E-1,-9.377345E-2,-0E0,-1.281942E-1,-2.0363985E-2],"categories":[],"categories_nodes":[],"categories_segments":[],"categories_sizes":[],"default_left":[0,0,0,0,0,0,0,0,0,0,0,0,0,0,0,0,0,0,0,0,0,0,0,0,0,0,0,0,0,0,0,0,0,0,0,0,0,0,0,0,0,0,0,0,0,0,0,0,0,0,0,0,0,0,0,0,0,0,0,0,0,0,0,0,0,0,0,0,0,0,0,0,0,0,0,0,0,0,0,0,0,0,0,0,0,0,0,0,0,0,0,0,0,0,0,0,0,0,0,0,0,0,0,0,0,0,0,0,0],"id":13,"left_children":[1,3,5,7,9,11,13,15,17,19,21,23,25,27,29,31,33,35,37,-1,39,41,43,45,47,49,51,53,55,57,59,61,63,65,67,69,71,73,75,77,79,81,-1,83,85,87,89,91,93,95,97,99,101,103,105,-1,-1,107,-1,-1,-1,-1,-1,-1,-1,-1,-1,-1,-1,-1,-1,-1,-1,-1,-1,-1,-1,-1,-1,-1,-1,-1,-1,-1,-1,-1,-1,-1,-1,-1,-1,-1,-1,-1,-1,-1,-1,-1,-1,-1,-1,-1,-1,-1,-1,-1,-1,-1,-1],"loss_changes":[3.6494174E2,7.45708E1,1.7675421E2,3.8256897E1,4.2467415E1,2.0140169E2,2.5981094E1,3.6821907E1,5.1085205E0,4.928833E0,2.0685764E1,1.356587E2,7.3474434E1,2.0556091E1,7.3850055E0,4.9505005E0,3.7556473E1,5.892043E0,2.6417847E0,0E0,1.589962E0,1.2099419E1,7.835385E0,9.209515E0,9.2991776E1,5.399248E1,1.546431E1,1.01267395E1,1.2976484E0,3.0885854E0,1.0206098E1,4.1794257E0,5.08049E-1,2.386098E1,1.6930481E1,4.0913486E-1,7.4201603E0,1.8624126E0,2.1766663E0,4.9699974E-1,5.334095E0,6.6796722E0,0E0,1.4589577E0,6.754412E0,5.810669E0,3.5795593E-1,4.9794193E1,2.9759949E1,2.799912E1,1.7446892E1,1.3418251E1,4.1880646E0,6.3182983E0,5.672653E-1,0E0,0E0,4.7071075E-1,0E0,0E0,0E0,0E0,0E0,0E0,0E0,0E0,0E0,0E0,0E0,0E0,0E0,0E0,0E0,0E0,0E0,0E0,0E0,0E0,0E0,0E0,0E0,0E0,0E0,0E0,0E0,0E0,0E0,0E0,0E0,0E0,0E0,0E0,0E0,0E0,0E0,0E0,0E0,0E0,0E0,0E0,0E0,0E0,0E0,0E0,0E0,0E0,0E0,0E0,0E0],"parents":[2147483647,0,0,1,1,2,2,3,3,4,4,5,5,6,6,7,7,8,8,9,9,10,10,11,11,12,12,13,13,14,14,15,15,16,16,17,17,18,18,20,20,21,21,22,22,23,23,24,24,25,25,26,26,27,27,28,28,29,29,30,30,31,31,32,32,33,33,34,34,35,35,36,36,37,37,38,38,39,39,40,40,41,41,43,43,44,44,45,45,46,46,47,47,48,48,49,49,50,50,51,51,52,52,53,53,54,54,57,57],"right_children":[2,4,6,8,10,12,14,16,18,20,22,24,26,28,30,32,34,36,38,-1,40,42,44,46,48,50,52,54,56,58,60,62,64,66,68,70,72,74,76,78,80,82,-1,84,86,88,90,92,94,96,98,100,102,104,106,-1,-1,108,-1,-1,-1,-1,-1,-1,-1,-1,-1,-1,-1,-1,-1,-1,-1,-1,-1,-1,-1,-1,-1,-1,-1,-1,-1,-1,-1,-1,-1,-1,-1,-1,-1,-1,-1,-1,-1,-1,-1,-1,-1,-1,-1,-1,-1,-1,-1,-1,-1,-1,-1],"split_conditions":[-6.026744E-1,8.5393333E-1,6.636992E-1,2.4821769E-1,-1.9137636E-2,3.219103E-1,7.556695E-1,-1.5084026E0,-1.0944309E0,8.3448744E-1,1.5403303E0,-1.5084026E0,-5.616282E-1,1.0806031E0,2.8476536E-1,-1.5430384E0,5.8040764E-2,2.0335992E-1,-1.8630852E0,6.8818755E-2,1.06662534E-1,2.910179E-1,9.192626E-1,4.8413628E-1,2.5871562E-2,8.4742004E-1,-1.3470963E-1,2.15324E0,7.870471E-2,6.4886606E-1,-3.5712278E-1,-7.877681E-1,-2.0299103E0,1.3648193E-1,-1.0358683E0,3.551922E-1,-8.8759583E-1,7.54569E-1,-1.8934737E0,-1.067348E0,-3.213018E-1,-1.5084026E0,-9.5552966E-2,-1.3057339E0,1.1348815E0,1.7588049E0,-2.1495419E0,8.361342E-1,-1.9342773E-1,-3.6165822E-2,5.867408E-1,5.5614233E-1,2.3395915E0,-7.8590935E-1,-2.4627733E-1,2.0580825E-3,-1.0937454E-1,1.1599528E0,3.203373E-2,-9.908778E-2,1.368104E-1,9.836459E-2,-7.70499E-2,-4.9874846E-2,-1.1385315E-1,-2.818638E-2,6.958931E-2,-1.02487564E-1,-3.655566E-2,-1.3545029E-2,-1.1013712E-1,-7.53824E-2,8.424413E-2,6.853717E-2,-6.286734E-2,1.381497E-2,-1.0813611E-1,-1.1723339E-1,-3.087011E-2,-1.126879E-1,4.6642125E-2,-7.428116E-2,1.24485016E-1,-6.734161E-3,-1.059351E-1,9.7884886E-2,-4.9197078E-2,-5.98068E-2,3.666055E-2,-1.9613357E-2,-1.1727966E-1,-1.1812452E-3,5.962618E-2,9.5115826E-2,4.0032063E-2,-6.5983064E-2,3.3335317E-2,1.0270428E-1,-1.0571267E-1,-6.9368094E-2,1.851259E-2,-1.07621066E-1,1.80809E-3,-6.953584E-2,1.1731998E-1,-9.377345E-2,-0E0,-1.281942E-1,-2.0363985E-2],"split_indices":[28,23,23,9,14,9,22,9,8,22,22,9,22,25,0,0,23,18,16,0,18,7,23,13,15,14,13,1,9,18,14,15,1,16,28,9,16,9,0,28,25,9,0,7,13,8,5,28,9,18,25,23,14,18,18,0,0,25,0,0,0,0,0,0,0,0,0,0,0,0,0,0,0,0,0,0,0,0,0,0,0,0,0,0,0,0,0,0,0,0,0,0,0,0,0,0,0,0,0,0,0,0,0,0,0,0,0,0,0],"split_type":[0,0,0,0,0,0,0,0,0,0,0,0,0,0,0,0,0,0,0,0,0,0,0,0,0,0,0,0,0,0,0,0,0,0,0,0,0,0,0,0,0,0,0,0,0,0,0,0,0,0,0,0,0,0,0,0,0,0,0,0,0,0,0,0,0,0,0,0,0,0,0,0,0,0,0,0,0,0,0,0,0,0,0,0,0,0,0,0,0,0,0,0,0,0,0,0,0,0,0,0,0,0,0,0,